digraph Tree {
node [shape=box, style="filled, rounded", color="black", fontname="helvetica"] ;
edge [fontname="helvetica"] ;
0 [label=<deadline &le; 739222.5<br/>squared_error = 36.222<br/>samples = 40000<br/>value = 13.942>, fillcolor="#f5cfb4"] ;
1 [label=<deadline &le; 739217.5<br/>squared_error = 20.833<br/>samples = 22558<br/>value = 10.935>, fillcolor="#f8decb"] ;
0 -> 1 [labeldistance=2.5, labelangle=45, headlabel="True"] ;
2 [label=<priority &le; 1.5<br/>squared_error = 15.752<br/>samples = 9469<br/>value = 8.622>, fillcolor="#fae9dc"] ;
1 -> 2 ;
3 [label=<team &le; 7.5<br/>squared_error = 19.889<br/>samples = 4717<br/>value = 10.207>, fillcolor="#f9e1d0"] ;
2 -> 3 ;
4 [label=<priority &le; 0.5<br/>squared_error = 16.882<br/>samples = 1719<br/>value = 12.105>, fillcolor="#f7d8c2"] ;
3 -> 4 ;
5 [label=<team &le; 5.5<br/>squared_error = 22.322<br/>samples = 673<br/>value = 13.553>, fillcolor="#f6d1b7"] ;
4 -> 5 ;
6 [label=<team &le; 4.5<br/>squared_error = 23.533<br/>samples = 232<br/>value = 14.927>, fillcolor="#f4cbad"] ;
5 -> 6 ;
7 [label=<squared_error = 23.989<br/>samples = 95<br/>value = 16.011>, fillcolor="#f3c5a4"] ;
6 -> 7 ;
8 [label=<deadline &le; 739216.5<br/>squared_error = 21.838<br/>samples = 137<br/>value = 14.175>, fillcolor="#f5ceb2"] ;
6 -> 8 ;
9 [label=<squared_error = 22.634<br/>samples = 83<br/>value = 13.771>, fillcolor="#f5d0b5"] ;
8 -> 9 ;
10 [label=<squared_error = 19.977<br/>samples = 54<br/>value = 14.796>, fillcolor="#f4cbae"] ;
8 -> 10 ;
11 [label=<type_refactor &le; 0.5<br/>squared_error = 20.168<br/>samples = 441<br/>value = 12.83>, fillcolor="#f6d5bc"] ;
5 -> 11 ;
12 [label=<type_documentation &le; 0.5<br/>squared_error = 19.701<br/>samples = 391<br/>value = 12.611>, fillcolor="#f6d6be"] ;
11 -> 12 ;
13 [label=<deadline &le; 739216.5<br/>squared_error = 19.266<br/>samples = 316<br/>value = 12.449>, fillcolor="#f7d6bf"] ;
12 -> 13 ;
14 [label=<technologies_java &le; 0.5<br/>squared_error = 19.29<br/>samples = 245<br/>value = 12.714>, fillcolor="#f6d5bd"] ;
13 -> 14 ;
15 [label=<type_test &le; 0.5<br/>squared_error = 19.291<br/>samples = 194<br/>value = 12.943>, fillcolor="#f6d4bc"] ;
14 -> 15 ;
16 [label=<squared_error = 19.739<br/>samples = 94<br/>value = 12.489>, fillcolor="#f7d6bf"] ;
15 -> 16 ;
17 [label=<squared_error = 18.493<br/>samples = 100<br/>value = 13.37>, fillcolor="#f6d2b8"] ;
15 -> 17 ;
18 [label=<squared_error = 18.328<br/>samples = 51<br/>value = 11.843>, fillcolor="#f7d9c4"] ;
14 -> 18 ;
19 [label=<squared_error = 18.108<br/>samples = 71<br/>value = 11.535>, fillcolor="#f8dbc6"] ;
13 -> 19 ;
20 [label=<squared_error = 20.954<br/>samples = 75<br/>value = 13.293>, fillcolor="#f6d2b9"] ;
12 -> 20 ;
21 [label=<squared_error = 20.528<br/>samples = 50<br/>value = 14.54>, fillcolor="#f5ccb0"] ;
11 -> 21 ;
22 [label=<team &le; 5.5<br/>squared_error = 11.167<br/>samples = 1046<br/>value = 11.174>, fillcolor="#f8ddc9"] ;
4 -> 22 ;
23 [label=<team &le; 4.5<br/>squared_error = 10.327<br/>samples = 374<br/>value = 12.102>, fillcolor="#f7d8c2"] ;
22 -> 23 ;
24 [label=<type_feature &le; 0.5<br/>squared_error = 9.95<br/>samples = 167<br/>value = 12.527>, fillcolor="#f7d6bf"] ;
23 -> 24 ;
25 [label=<squared_error = 10.009<br/>samples = 100<br/>value = 12.47>, fillcolor="#f7d6bf"] ;
24 -> 25 ;
26 [label=<squared_error = 9.849<br/>samples = 67<br/>value = 12.612>, fillcolor="#f6d6be"] ;
24 -> 26 ;
27 [label=<type_test &le; 0.5<br/>squared_error = 10.367<br/>samples = 207<br/>value = 11.758>, fillcolor="#f7dac4"] ;
23 -> 27 ;
28 [label=<start &le; 739209.5<br/>squared_error = 10.113<br/>samples = 120<br/>value = 11.308>, fillcolor="#f8dcc8"] ;
27 -> 28 ;
29 [label=<squared_error = 8.768<br/>samples = 56<br/>value = 11.018>, fillcolor="#f8ddca"] ;
28 -> 29 ;
30 [label=<squared_error = 11.152<br/>samples = 64<br/>value = 11.562>, fillcolor="#f7dbc6"] ;
28 -> 30 ;
31 [label=<squared_error = 10.052<br/>samples = 87<br/>value = 12.379>, fillcolor="#f7d7c0"] ;
27 -> 31 ;
32 [label=<type_documentation &le; 0.5<br/>squared_error = 10.889<br/>samples = 672<br/>value = 10.658>, fillcolor="#f8dfcd"] ;
22 -> 32 ;
33 [label=<deadline &le; 739214.5<br/>squared_error = 10.453<br/>samples = 560<br/>value = 10.475>, fillcolor="#f9e0ce"] ;
32 -> 33 ;
34 [label=<type_test &le; 0.5<br/>squared_error = 10.48<br/>samples = 143<br/>value = 9.951>, fillcolor="#f9e2d2"] ;
33 -> 34 ;
35 [label=<squared_error = 11.697<br/>samples = 91<br/>value = 10.341>, fillcolor="#f9e0cf"] ;
34 -> 35 ;
36 [label=<squared_error = 7.62<br/>samples = 52<br/>value = 9.269>, fillcolor="#fae6d7"] ;
34 -> 36 ;
37 [label=<technologies_web &le; 0.5<br/>squared_error = 10.317<br/>samples = 417<br/>value = 10.655>, fillcolor="#f8dfcd"] ;
33 -> 37 ;
38 [label=<technologies_sql &le; 0.5<br/>squared_error = 10.535<br/>samples = 342<br/>value = 10.465>, fillcolor="#f9e0ce"] ;
37 -> 38 ;
39 [label=<type_feature &le; 0.5<br/>squared_error = 10.784<br/>samples = 277<br/>value = 10.35>, fillcolor="#f9e0cf"] ;
38 -> 39 ;
40 [label=<deadline &le; 739216.5<br/>squared_error = 10.241<br/>samples = 162<br/>value = 10.593>, fillcolor="#f8dfcd"] ;
39 -> 40 ;
41 [label=<deadline &le; 739215.5<br/>squared_error = 9.944<br/>samples = 107<br/>value = 10.785>, fillcolor="#f8decc"] ;
40 -> 41 ;
42 [label=<squared_error = 9.91<br/>samples = 57<br/>value = 10.86>, fillcolor="#f8decb"] ;
41 -> 42 ;
43 [label=<squared_error = 9.97<br/>samples = 50<br/>value = 10.7>, fillcolor="#f8dfcc"] ;
41 -> 43 ;
44 [label=<squared_error = 10.607<br/>samples = 55<br/>value = 10.218>, fillcolor="#f9e1d0"] ;
40 -> 44 ;
45 [label=<team &le; 6.5<br/>squared_error = 11.348<br/>samples = 115<br/>value = 10.009>, fillcolor="#f9e2d2"] ;
39 -> 45 ;
46 [label=<squared_error = 10.306<br/>samples = 54<br/>value = 9.907>, fillcolor="#f9e3d2"] ;
45 -> 46 ;
47 [label=<squared_error = 12.253<br/>samples = 61<br/>value = 10.098>, fillcolor="#f9e2d1"] ;
45 -> 47 ;
48 [label=<squared_error = 9.182<br/>samples = 65<br/>value = 10.954>, fillcolor="#f8deca"] ;
38 -> 48 ;
49 [label=<squared_error = 8.41<br/>samples = 75<br/>value = 11.52>, fillcolor="#f8dbc6"] ;
37 -> 49 ;
50 [label=<start &le; 739209.5<br/>squared_error = 12.066<br/>samples = 112<br/>value = 11.571>, fillcolor="#f7dbc6"] ;
32 -> 50 ;
51 [label=<squared_error = 11.538<br/>samples = 61<br/>value = 11.262>, fillcolor="#f8dcc8"] ;
50 -> 51 ;
52 [label=<squared_error = 12.448<br/>samples = 51<br/>value = 11.941>, fillcolor="#f7d9c3"] ;
50 -> 52 ;
53 [label=<priority &le; 0.5<br/>squared_error = 18.363<br/>samples = 2998<br/>value = 9.119>, fillcolor="#fae6d8"] ;
3 -> 53 ;
54 [label=<technologies_c++ &le; 0.5<br/>squared_error = 23.899<br/>samples = 1163<br/>value = 10.776>, fillcolor="#f8decc"] ;
53 -> 54 ;
55 [label=<team &le; 9.5<br/>squared_error = 22.881<br/>samples = 1093<br/>value = 10.484>, fillcolor="#f9e0ce"] ;
54 -> 55 ;
56 [label=<start &le; 739208.5<br/>squared_error = 21.316<br/>samples = 679<br/>value = 11.165>, fillcolor="#f8ddc9"] ;
55 -> 56 ;
57 [label=<team &le; 8.5<br/>squared_error = 20.345<br/>samples = 168<br/>value = 10.512>, fillcolor="#f9e0ce"] ;
56 -> 57 ;
58 [label=<squared_error = 20.087<br/>samples = 77<br/>value = 11.065>, fillcolor="#f8ddca"] ;
57 -> 58 ;
59 [label=<squared_error = 20.086<br/>samples = 91<br/>value = 10.044>, fillcolor="#f9e2d1"] ;
57 -> 59 ;
60 [label=<start &le; 739210.5<br/>squared_error = 21.449<br/>samples = 511<br/>value = 11.38>, fillcolor="#f8dcc7"] ;
56 -> 60 ;
61 [label=<technologies_python &le; 0.5<br/>squared_error = 20.708<br/>samples = 325<br/>value = 11.628>, fillcolor="#f7dac5"] ;
60 -> 61 ;
62 [label=<deadline &le; 739215.5<br/>squared_error = 20.508<br/>samples = 268<br/>value = 11.448>, fillcolor="#f8dbc7"] ;
61 -> 62 ;
63 [label=<deadline &le; 739213.5<br/>squared_error = 21.139<br/>samples = 174<br/>value = 11.224>, fillcolor="#f8dcc8"] ;
62 -> 63 ;
64 [label=<squared_error = 21.353<br/>samples = 81<br/>value = 11.827>, fillcolor="#f7d9c4"] ;
63 -> 64 ;
65 [label=<squared_error = 20.361<br/>samples = 93<br/>value = 10.699>, fillcolor="#f8dfcc"] ;
63 -> 65 ;
66 [label=<squared_error = 19.077<br/>samples = 94<br/>value = 11.862>, fillcolor="#f7d9c4"] ;
62 -> 66 ;
67 [label=<squared_error = 20.776<br/>samples = 57<br/>value = 12.474>, fillcolor="#f7d6bf"] ;
61 -> 67 ;
68 [label=<deadline &le; 739215.5<br/>squared_error = 22.449<br/>samples = 186<br/>value = 10.946>, fillcolor="#f8decb"] ;
60 -> 68 ;
69 [label=<deadline &le; 739213.5<br/>squared_error = 23.012<br/>samples = 124<br/>value = 11.29>, fillcolor="#f8dcc8"] ;
68 -> 69 ;
70 [label=<squared_error = 23.854<br/>samples = 54<br/>value = 11.13>, fillcolor="#f8ddc9"] ;
69 -> 70 ;
71 [label=<squared_error = 22.328<br/>samples = 70<br/>value = 11.414>, fillcolor="#f8dbc7"] ;
69 -> 71 ;
72 [label=<squared_error = 20.611<br/>samples = 62<br/>value = 10.258>, fillcolor="#f9e1d0"] ;
68 -> 72 ;
73 [label=<technologies_web &le; 0.5<br/>squared_error = 23.44<br/>samples = 414<br/>value = 9.367>, fillcolor="#fae5d6"] ;
55 -> 73 ;
74 [label=<deadline &le; 739213.5<br/>squared_error = 22.286<br/>samples = 328<br/>value = 9.024>, fillcolor="#fae7d9"] ;
73 -> 74 ;
75 [label=<start &le; 739209.5<br/>squared_error = 21.576<br/>samples = 138<br/>value = 8.275>, fillcolor="#fbeadf"] ;
74 -> 75 ;
76 [label=<squared_error = 20.526<br/>samples = 61<br/>value = 7.639>, fillcolor="#fbede3"] ;
75 -> 76 ;
77 [label=<squared_error = 21.834<br/>samples = 77<br/>value = 8.779>, fillcolor="#fae8db"] ;
75 -> 77 ;
78 [label=<type_feature &le; 0.5<br/>squared_error = 22.098<br/>samples = 190<br/>value = 9.568>, fillcolor="#f9e4d5"] ;
74 -> 78 ;
79 [label=<start &le; 739209.5<br/>squared_error = 22.149<br/>samples = 127<br/>value = 10.094>, fillcolor="#f9e2d1"] ;
78 -> 79 ;
80 [label=<squared_error = 24.154<br/>samples = 52<br/>value = 11.0>, fillcolor="#f8ddca"] ;
79 -> 80 ;
81 [label=<squared_error = 19.796<br/>samples = 75<br/>value = 9.467>, fillcolor="#fae5d6"] ;
79 -> 81 ;
82 [label=<squared_error = 20.313<br/>samples = 63<br/>value = 8.508>, fillcolor="#fbe9dd"] ;
78 -> 82 ;
83 [label=<squared_error = 25.685<br/>samples = 86<br/>value = 10.674>, fillcolor="#f8dfcd"] ;
73 -> 83 ;
84 [label=<squared_error = 17.735<br/>samples = 70<br/>value = 15.329>, fillcolor="#f4c9aa"] ;
54 -> 84 ;
85 [label=<technologies_c++ &le; 0.5<br/>squared_error = 12.013<br/>samples = 1835<br/>value = 8.069>, fillcolor="#fbebe0"] ;
53 -> 85 ;
86 [label=<team &le; 9.5<br/>squared_error = 11.107<br/>samples = 1741<br/>value = 7.848>, fillcolor="#fbece2"] ;
85 -> 86 ;
87 [label=<team &le; 8.5<br/>squared_error = 10.482<br/>samples = 1052<br/>value = 8.32>, fillcolor="#fbeade"] ;
86 -> 87 ;
88 [label=<type_feature &le; 0.5<br/>squared_error = 10.232<br/>samples = 473<br/>value = 8.719>, fillcolor="#fae8db"] ;
87 -> 88 ;
89 [label=<deadline &le; 739215.5<br/>squared_error = 10.166<br/>samples = 295<br/>value = 8.997>, fillcolor="#fae7d9"] ;
88 -> 89 ;
90 [label=<start &le; 739209.5<br/>squared_error = 10.287<br/>samples = 180<br/>value = 8.75>, fillcolor="#fae8db"] ;
89 -> 90 ;
91 [label=<squared_error = 9.783<br/>samples = 74<br/>value = 8.122>, fillcolor="#fbebe0"] ;
90 -> 91 ;
92 [label=<squared_error = 10.172<br/>samples = 106<br/>value = 9.189>, fillcolor="#fae6d8"] ;
90 -> 92 ;
93 [label=<deadline &le; 739216.5<br/>squared_error = 9.732<br/>samples = 115<br/>value = 9.383>, fillcolor="#fae5d6"] ;
89 -> 93 ;
94 [label=<squared_error = 9.96<br/>samples = 57<br/>value = 9.596>, fillcolor="#f9e4d5"] ;
93 -> 94 ;
95 [label=<squared_error = 9.419<br/>samples = 58<br/>value = 9.172>, fillcolor="#fae6d8"] ;
93 -> 95 ;
96 [label=<start &le; 739210.5<br/>squared_error = 10.001<br/>samples = 178<br/>value = 8.258>, fillcolor="#fbeadf"] ;
88 -> 96 ;
97 [label=<deadline &le; 739214.5<br/>squared_error = 10.096<br/>samples = 125<br/>value = 8.016>, fillcolor="#fbece1"] ;
96 -> 97 ;
98 [label=<squared_error = 10.416<br/>samples = 60<br/>value = 7.817>, fillcolor="#fbede2"] ;
97 -> 98 ;
99 [label=<squared_error = 9.729<br/>samples = 65<br/>value = 8.2>, fillcolor="#fbebdf"] ;
97 -> 99 ;
100 [label=<squared_error = 9.311<br/>samples = 53<br/>value = 8.83>, fillcolor="#fae8da"] ;
96 -> 100 ;
101 [label=<deadline &le; 739212.5<br/>squared_error = 10.451<br/>samples = 579<br/>value = 7.995>, fillcolor="#fbece1"] ;
87 -> 101 ;
102 [label=<start &le; 739209.5<br/>squared_error = 9.094<br/>samples = 115<br/>value = 7.139>, fillcolor="#fcf0e7"] ;
101 -> 102 ;
103 [label=<squared_error = 8.8<br/>samples = 63<br/>value = 7.159>, fillcolor="#fcf0e7"] ;
102 -> 103 ;
104 [label=<squared_error = 9.448<br/>samples = 52<br/>value = 7.115>, fillcolor="#fcf0e7"] ;
102 -> 104 ;
105 [label=<type_feature &le; 0.5<br/>squared_error = 10.561<br/>samples = 464<br/>value = 8.207>, fillcolor="#fbebdf"] ;
101 -> 105 ;
106 [label=<type_test &le; 0.5<br/>squared_error = 10.535<br/>samples = 314<br/>value = 8.459>, fillcolor="#fbe9dd"] ;
105 -> 106 ;
107 [label=<type_refactor &le; 0.5<br/>squared_error = 11.585<br/>samples = 143<br/>value = 9.154>, fillcolor="#fae6d8"] ;
106 -> 107 ;
108 [label=<squared_error = 13.246<br/>samples = 92<br/>value = 9.435>, fillcolor="#fae5d6"] ;
107 -> 108 ;
109 [label=<squared_error = 8.189<br/>samples = 51<br/>value = 8.647>, fillcolor="#fae9dc"] ;
107 -> 109 ;
110 [label=<start &le; 739209.5<br/>squared_error = 8.915<br/>samples = 171<br/>value = 7.877>, fillcolor="#fbece2"] ;
106 -> 110 ;
111 [label=<squared_error = 8.749<br/>samples = 80<br/>value = 8.462>, fillcolor="#fbe9dd"] ;
110 -> 111 ;
112 [label=<squared_error = 8.495<br/>samples = 91<br/>value = 7.363>, fillcolor="#fcefe5"] ;
110 -> 112 ;
113 [label=<deadline &le; 739215.5<br/>squared_error = 10.204<br/>samples = 150<br/>value = 7.68>, fillcolor="#fbede3"] ;
105 -> 113 ;
114 [label=<squared_error = 11.405<br/>samples = 80<br/>value = 8.088>, fillcolor="#fbebe0"] ;
113 -> 114 ;
115 [label=<squared_error = 8.426<br/>samples = 70<br/>value = 7.214>, fillcolor="#fcefe7"] ;
113 -> 115 ;
116 [label=<type_feature &le; 0.5<br/>squared_error = 11.203<br/>samples = 689<br/>value = 7.128>, fillcolor="#fcf0e7"] ;
86 -> 116 ;
117 [label=<type_test &le; 0.5<br/>squared_error = 11.389<br/>samples = 460<br/>value = 7.435>, fillcolor="#fceee5"] ;
116 -> 117 ;
118 [label=<type_refactor &le; 0.5<br/>squared_error = 12.518<br/>samples = 214<br/>value = 8.238>, fillcolor="#fbebdf"] ;
117 -> 118 ;
119 [label=<deadline &le; 739214.5<br/>squared_error = 12.89<br/>samples = 147<br/>value = 8.701>, fillcolor="#fae8db"] ;
118 -> 119 ;
120 [label=<squared_error = 11.165<br/>samples = 73<br/>value = 7.767>, fillcolor="#fbede2"] ;
119 -> 120 ;
121 [label=<squared_error = 12.884<br/>samples = 74<br/>value = 9.622>, fillcolor="#f9e4d4"] ;
119 -> 121 ;
122 [label=<squared_error = 10.204<br/>samples = 67<br/>value = 7.224>, fillcolor="#fcefe6"] ;
118 -> 122 ;
123 [label=<deadline &le; 739215.5<br/>squared_error = 9.357<br/>samples = 246<br/>value = 6.736>, fillcolor="#fcf2ea"] ;
117 -> 123 ;
124 [label=<deadline &le; 739213.5<br/>squared_error = 9.446<br/>samples = 173<br/>value = 6.85>, fillcolor="#fcf1e9"] ;
123 -> 124 ;
125 [label=<squared_error = 9.024<br/>samples = 107<br/>value = 6.72>, fillcolor="#fcf2ea"] ;
124 -> 125 ;
126 [label=<squared_error = 10.057<br/>samples = 66<br/>value = 7.061>, fillcolor="#fcf0e8"] ;
124 -> 126 ;
127 [label=<squared_error = 9.043<br/>samples = 73<br/>value = 6.466>, fillcolor="#fdf3ec"] ;
123 -> 127 ;
128 [label=<start &le; 739208.5<br/>squared_error = 10.259<br/>samples = 229<br/>value = 6.511>, fillcolor="#fcf3ec"] ;
116 -> 128 ;
129 [label=<squared_error = 9.781<br/>samples = 68<br/>value = 7.206>, fillcolor="#fcefe7"] ;
128 -> 129 ;
130 [label=<deadline &le; 739213.5<br/>squared_error = 10.17<br/>samples = 161<br/>value = 6.217>, fillcolor="#fdf4ee"] ;
128 -> 130 ;
131 [label=<squared_error = 9.859<br/>samples = 90<br/>value = 5.911>, fillcolor="#fdf6f0"] ;
130 -> 131 ;
132 [label=<squared_error = 10.295<br/>samples = 71<br/>value = 6.606>, fillcolor="#fcf2eb"] ;
130 -> 132 ;
133 [label=<squared_error = 11.155<br/>samples = 94<br/>value = 12.16>, fillcolor="#f7d8c1"] ;
85 -> 133 ;
134 [label=<team &le; 7.5<br/>squared_error = 6.676<br/>samples = 4752<br/>value = 7.049>, fillcolor="#fcf0e8"] ;
2 -> 134 ;
135 [label=<team &le; 5.5<br/>squared_error = 4.446<br/>samples = 1958<br/>value = 8.638>, fillcolor="#fae9dc"] ;
134 -> 135 ;
136 [label=<team &le; 4.5<br/>squared_error = 3.425<br/>samples = 660<br/>value = 9.906>, fillcolor="#f9e3d2"] ;
135 -> 136 ;
137 [label=<team &le; 3.5<br/>squared_error = 2.984<br/>samples = 304<br/>value = 10.549>, fillcolor="#f8dfcd"] ;
136 -> 137 ;
138 [label=<squared_error = 2.567<br/>samples = 89<br/>value = 11.079>, fillcolor="#f8ddca"] ;
137 -> 138 ;
139 [label=<type_feature &le; 0.5<br/>squared_error = 2.993<br/>samples = 215<br/>value = 10.33>, fillcolor="#f9e1cf"] ;
137 -> 139 ;
140 [label=<start &le; 739209.5<br/>squared_error = 2.603<br/>samples = 134<br/>value = 10.425>, fillcolor="#f9e0ce"] ;
139 -> 140 ;
141 [label=<squared_error = 2.577<br/>samples = 71<br/>value = 10.394>, fillcolor="#f9e0cf"] ;
140 -> 141 ;
142 [label=<squared_error = 2.629<br/>samples = 63<br/>value = 10.46>, fillcolor="#f9e0ce"] ;
140 -> 142 ;
143 [label=<squared_error = 3.6<br/>samples = 81<br/>value = 10.173>, fillcolor="#f9e1d0"] ;
139 -> 143 ;
144 [label=<type_documentation &le; 0.5<br/>squared_error = 3.145<br/>samples = 356<br/>value = 9.357>, fillcolor="#fae5d6"] ;
136 -> 144 ;
145 [label=<technologies_nosql &le; 0.5<br/>squared_error = 3.165<br/>samples = 303<br/>value = 9.251>, fillcolor="#fae6d7"] ;
144 -> 145 ;
146 [label=<start &le; 739210.5<br/>squared_error = 3.205<br/>samples = 248<br/>value = 9.157>, fillcolor="#fae6d8"] ;
145 -> 146 ;
147 [label=<deadline &le; 739216.5<br/>squared_error = 3.003<br/>samples = 198<br/>value = 9.288>, fillcolor="#fae6d7"] ;
146 -> 147 ;
148 [label=<type_test &le; 0.5<br/>squared_error = 2.843<br/>samples = 130<br/>value = 9.185>, fillcolor="#fae6d8"] ;
147 -> 148 ;
149 [label=<squared_error = 2.879<br/>samples = 77<br/>value = 9.286>, fillcolor="#fae6d7"] ;
148 -> 149 ;
150 [label=<squared_error = 2.753<br/>samples = 53<br/>value = 9.038>, fillcolor="#fae7d9"] ;
148 -> 150 ;
151 [label=<squared_error = 3.25<br/>samples = 68<br/>value = 9.485>, fillcolor="#fae5d5"] ;
147 -> 151 ;
152 [label=<squared_error = 3.67<br/>samples = 50<br/>value = 8.64>, fillcolor="#fae9dc"] ;
146 -> 152 ;
153 [label=<squared_error = 2.766<br/>samples = 55<br/>value = 9.673>, fillcolor="#f9e4d4"] ;
145 -> 153 ;
154 [label=<squared_error = 2.602<br/>samples = 53<br/>value = 9.962>, fillcolor="#f9e2d2"] ;
144 -> 154 ;
155 [label=<team &le; 6.5<br/>squared_error = 3.733<br/>samples = 1298<br/>value = 7.994>, fillcolor="#fbece1"] ;
135 -> 155 ;
156 [label=<type_documentation &le; 0.5<br/>squared_error = 3.068<br/>samples = 560<br/>value = 8.559>, fillcolor="#fae9dc"] ;
155 -> 156 ;
157 [label=<type_test &le; 0.5<br/>squared_error = 2.956<br/>samples = 480<br/>value = 8.452>, fillcolor="#fbeadd"] ;
156 -> 157 ;
158 [label=<start &le; 739209.5<br/>squared_error = 2.794<br/>samples = 262<br/>value = 8.309>, fillcolor="#fbeade"] ;
157 -> 158 ;
159 [label=<start &le; 739208.5<br/>squared_error = 2.907<br/>samples = 137<br/>value = 8.482>, fillcolor="#fbe9dd"] ;
158 -> 159 ;
160 [label=<squared_error = 3.06<br/>samples = 66<br/>value = 8.303>, fillcolor="#fbeade"] ;
159 -> 160 ;
161 [label=<squared_error = 2.707<br/>samples = 71<br/>value = 8.648>, fillcolor="#fae9dc"] ;
159 -> 161 ;
162 [label=<start &le; 739210.5<br/>squared_error = 2.602<br/>samples = 125<br/>value = 8.12>, fillcolor="#fbebe0"] ;
158 -> 162 ;
163 [label=<squared_error = 2.676<br/>samples = 69<br/>value = 7.928>, fillcolor="#fbece1"] ;
162 -> 163 ;
164 [label=<squared_error = 2.408<br/>samples = 56<br/>value = 8.357>, fillcolor="#fbeade"] ;
162 -> 164 ;
165 [label=<start &le; 739208.5<br/>squared_error = 3.097<br/>samples = 218<br/>value = 8.624>, fillcolor="#fae9dc"] ;
157 -> 165 ;
166 [label=<squared_error = 2.534<br/>samples = 52<br/>value = 8.75>, fillcolor="#fae8db"] ;
165 -> 166 ;
167 [label=<start &le; 739209.5<br/>squared_error = 3.267<br/>samples = 166<br/>value = 8.584>, fillcolor="#fae9dc"] ;
165 -> 167 ;
168 [label=<squared_error = 2.651<br/>samples = 59<br/>value = 8.424>, fillcolor="#fbeadd"] ;
167 -> 168 ;
169 [label=<start &le; 739210.5<br/>squared_error = 3.585<br/>samples = 107<br/>value = 8.673>, fillcolor="#fae8dc"] ;
167 -> 169 ;
170 [label=<squared_error = 4.16<br/>samples = 51<br/>value = 8.608>, fillcolor="#fae9dc"] ;
169 -> 170 ;
171 [label=<squared_error = 3.053<br/>samples = 56<br/>value = 8.732>, fillcolor="#fae8db"] ;
169 -> 171 ;
172 [label=<squared_error = 3.26<br/>samples = 80<br/>value = 9.2>, fillcolor="#fae6d8"] ;
156 -> 172 ;
173 [label=<type_documentation &le; 0.5<br/>squared_error = 3.812<br/>samples = 738<br/>value = 7.565>, fillcolor="#fbeee4"] ;
155 -> 173 ;
174 [label=<deadline &le; 739215.5<br/>squared_error = 3.801<br/>samples = 621<br/>value = 7.435>, fillcolor="#fceee5"] ;
173 -> 174 ;
175 [label=<technologies_web &le; 0.5<br/>squared_error = 3.123<br/>samples = 337<br/>value = 7.258>, fillcolor="#fcefe6"] ;
174 -> 175 ;
176 [label=<technologies_nosql &le; 0.5<br/>squared_error = 3.057<br/>samples = 277<br/>value = 7.191>, fillcolor="#fcf0e7"] ;
175 -> 176 ;
177 [label=<start &le; 739210.5<br/>squared_error = 2.941<br/>samples = 222<br/>value = 7.117>, fillcolor="#fcf0e7"] ;
176 -> 177 ;
178 [label=<deadline &le; 739214.5<br/>squared_error = 2.837<br/>samples = 160<br/>value = 7.0>, fillcolor="#fcf0e8"] ;
177 -> 178 ;
179 [label=<squared_error = 2.641<br/>samples = 104<br/>value = 6.885>, fillcolor="#fcf1e9"] ;
178 -> 179 ;
180 [label=<squared_error = 3.133<br/>samples = 56<br/>value = 7.214>, fillcolor="#fcefe7"] ;
178 -> 180 ;
181 [label=<squared_error = 3.082<br/>samples = 62<br/>value = 7.419>, fillcolor="#fceee5"] ;
177 -> 181 ;
182 [label=<squared_error = 3.414<br/>samples = 55<br/>value = 7.491>, fillcolor="#fceee4"] ;
176 -> 182 ;
183 [label=<squared_error = 3.312<br/>samples = 60<br/>value = 7.567>, fillcolor="#fbeee4"] ;
175 -> 183 ;
184 [label=<technologies_java &le; 0.5<br/>squared_error = 4.525<br/>samples = 284<br/>value = 7.644>, fillcolor="#fbede3"] ;
174 -> 184 ;
185 [label=<deadline &le; 739216.5<br/>squared_error = 4.79<br/>samples = 233<br/>value = 7.747>, fillcolor="#fbede3"] ;
184 -> 185 ;
186 [label=<type_feature &le; 0.5<br/>squared_error = 3.44<br/>samples = 119<br/>value = 7.555>, fillcolor="#fbeee4"] ;
185 -> 186 ;
187 [label=<squared_error = 2.848<br/>samples = 66<br/>value = 7.697>, fillcolor="#fbede3"] ;
186 -> 187 ;
188 [label=<squared_error = 4.122<br/>samples = 53<br/>value = 7.377>, fillcolor="#fcefe5"] ;
186 -> 188 ;
189 [label=<type_feature &le; 0.5<br/>squared_error = 6.12<br/>samples = 114<br/>value = 7.947>, fillcolor="#fbece1"] ;
185 -> 189 ;
190 [label=<squared_error = 6.643<br/>samples = 62<br/>value = 7.742>, fillcolor="#fbede3"] ;
189 -> 190 ;
191 [label=<squared_error = 5.386<br/>samples = 52<br/>value = 8.192>, fillcolor="#fbebdf"] ;
189 -> 191 ;
192 [label=<squared_error = 3.047<br/>samples = 51<br/>value = 7.176>, fillcolor="#fcf0e7"] ;
184 -> 192 ;
193 [label=<start &le; 739209.5<br/>squared_error = 3.302<br/>samples = 117<br/>value = 8.256>, fillcolor="#fbeadf"] ;
173 -> 193 ;
194 [label=<squared_error = 2.98<br/>samples = 59<br/>value = 8.373>, fillcolor="#fbeade"] ;
193 -> 194 ;
195 [label=<squared_error = 3.602<br/>samples = 58<br/>value = 8.138>, fillcolor="#fbebe0"] ;
193 -> 195 ;
196 [label=<technologies_c++ &le; 0.5<br/>squared_error = 5.229<br/>samples = 2794<br/>value = 5.936>, fillcolor="#fdf6f0"] ;
134 -> 196 ;
197 [label=<type_manual testing &le; 0.5<br/>squared_error = 4.405<br/>samples = 2583<br/>value = 5.67>, fillcolor="#fdf7f2"] ;
196 -> 197 ;
198 [label=<team &le; 8.5<br/>squared_error = 3.928<br/>samples = 2509<br/>value = 5.551>, fillcolor="#fdf7f3"] ;
197 -> 198 ;
199 [label=<type_documentation &le; 0.5<br/>squared_error = 3.039<br/>samples = 826<br/>value = 6.613>, fillcolor="#fcf2eb"] ;
198 -> 199 ;
200 [label=<start &le; 739210.5<br/>squared_error = 2.971<br/>samples = 657<br/>value = 6.478>, fillcolor="#fdf3ec"] ;
199 -> 200 ;
201 [label=<start &le; 739209.5<br/>squared_error = 2.889<br/>samples = 489<br/>value = 6.393>, fillcolor="#fdf3ed"] ;
200 -> 201 ;
202 [label=<type_feature &le; 0.5<br/>squared_error = 2.863<br/>samples = 333<br/>value = 6.495>, fillcolor="#fcf3ec"] ;
201 -> 202 ;
203 [label=<deadline &le; 739214.5<br/>squared_error = 2.965<br/>samples = 183<br/>value = 6.667>, fillcolor="#fcf2eb"] ;
202 -> 203 ;
204 [label=<squared_error = 2.886<br/>samples = 87<br/>value = 6.816>, fillcolor="#fcf1ea"] ;
203 -> 204 ;
205 [label=<squared_error = 2.999<br/>samples = 96<br/>value = 6.531>, fillcolor="#fcf3ec"] ;
203 -> 205 ;
206 [label=<deadline &le; 739214.5<br/>squared_error = 2.658<br/>samples = 150<br/>value = 6.287>, fillcolor="#fdf4ee"] ;
202 -> 206 ;
207 [label=<squared_error = 2.495<br/>samples = 67<br/>value = 6.164>, fillcolor="#fdf4ee"] ;
206 -> 207 ;
208 [label=<squared_error = 2.767<br/>samples = 83<br/>value = 6.386>, fillcolor="#fdf3ed"] ;
206 -> 208 ;
209 [label=<type_test &le; 0.5<br/>squared_error = 2.874<br/>samples = 156<br/>value = 6.173>, fillcolor="#fdf4ee"] ;
201 -> 209 ;
210 [label=<squared_error = 3.099<br/>samples = 92<br/>value = 6.293>, fillcolor="#fdf4ed"] ;
209 -> 210 ;
211 [label=<squared_error = 2.5<br/>samples = 64<br/>value = 6.0>, fillcolor="#fdf5f0"] ;
209 -> 211 ;
212 [label=<type_feature &le; 0.5<br/>squared_error = 3.127<br/>samples = 168<br/>value = 6.726>, fillcolor="#fcf2ea"] ;
200 -> 212 ;
213 [label=<squared_error = 3.246<br/>samples = 94<br/>value = 6.564>, fillcolor="#fcf3eb"] ;
212 -> 213 ;
214 [label=<squared_error = 2.901<br/>samples = 74<br/>value = 6.932>, fillcolor="#fcf1e9"] ;
212 -> 214 ;
215 [label=<deadline &le; 739215.5<br/>squared_error = 2.958<br/>samples = 169<br/>value = 7.136>, fillcolor="#fcf0e7"] ;
199 -> 215 ;
216 [label=<start &le; 739209.5<br/>squared_error = 2.846<br/>samples = 109<br/>value = 6.872>, fillcolor="#fcf1e9"] ;
215 -> 216 ;
217 [label=<squared_error = 2.704<br/>samples = 50<br/>value = 7.34>, fillcolor="#fcefe6"] ;
216 -> 217 ;
218 [label=<squared_error = 2.622<br/>samples = 59<br/>value = 6.475>, fillcolor="#fdf3ec"] ;
216 -> 218 ;
219 [label=<squared_error = 2.803<br/>samples = 60<br/>value = 7.617>, fillcolor="#fbeee4"] ;
215 -> 219 ;
220 [label=<team &le; 9.5<br/>squared_error = 3.54<br/>samples = 1683<br/>value = 5.03>, fillcolor="#fefaf7"] ;
198 -> 220 ;
221 [label=<type_documentation &le; 0.5<br/>squared_error = 3.345<br/>samples = 843<br/>value = 5.527>, fillcolor="#fdf8f3"] ;
220 -> 221 ;
222 [label=<deadline &le; 739213.5<br/>squared_error = 3.259<br/>samples = 664<br/>value = 5.325>, fillcolor="#fef8f5"] ;
221 -> 222 ;
223 [label=<technologies_python &le; 0.5<br/>squared_error = 3.398<br/>samples = 349<br/>value = 5.436>, fillcolor="#fef8f4"] ;
222 -> 223 ;
224 [label=<deadline &le; 739212.5<br/>squared_error = 3.354<br/>samples = 297<br/>value = 5.502>, fillcolor="#fdf8f3"] ;
223 -> 224 ;
225 [label=<start &le; 739209.5<br/>squared_error = 3.308<br/>samples = 172<br/>value = 5.39>, fillcolor="#fef8f4"] ;
224 -> 225 ;
226 [label=<squared_error = 3.344<br/>samples = 80<br/>value = 5.325>, fillcolor="#fef8f5"] ;
225 -> 226 ;
227 [label=<squared_error = 3.269<br/>samples = 92<br/>value = 5.446>, fillcolor="#fef8f4"] ;
225 -> 227 ;
228 [label=<start &le; 739209.5<br/>squared_error = 3.378<br/>samples = 125<br/>value = 5.656>, fillcolor="#fdf7f2"] ;
224 -> 228 ;
229 [label=<squared_error = 3.119<br/>samples = 58<br/>value = 5.81>, fillcolor="#fdf6f1"] ;
228 -> 229 ;
230 [label=<squared_error = 3.563<br/>samples = 67<br/>value = 5.522>, fillcolor="#fdf8f3"] ;
228 -> 230 ;
231 [label=<squared_error = 3.477<br/>samples = 52<br/>value = 5.058>, fillcolor="#fefaf7"] ;
223 -> 231 ;
232 [label=<deadline &le; 739215.5<br/>squared_error = 3.076<br/>samples = 315<br/>value = 5.203>, fillcolor="#fef9f6"] ;
222 -> 232 ;
233 [label=<start &le; 739208.5<br/>squared_error = 3.073<br/>samples = 248<br/>value = 5.141>, fillcolor="#fef9f6"] ;
232 -> 233 ;
234 [label=<squared_error = 3.046<br/>samples = 64<br/>value = 5.281>, fillcolor="#fef9f5"] ;
233 -> 234 ;
235 [label=<start &le; 739210.5<br/>squared_error = 3.073<br/>samples = 184<br/>value = 5.092>, fillcolor="#fefaf6"] ;
233 -> 235 ;
236 [label=<deadline &le; 739214.5<br/>squared_error = 3.086<br/>samples = 127<br/>value = 5.016>, fillcolor="#fefaf7"] ;
235 -> 236 ;
237 [label=<squared_error = 2.831<br/>samples = 74<br/>value = 4.919>, fillcolor="#fefaf8"] ;
236 -> 237 ;
238 [label=<squared_error = 3.411<br/>samples = 53<br/>value = 5.151>, fillcolor="#fef9f6"] ;
236 -> 238 ;
239 [label=<squared_error = 3.001<br/>samples = 57<br/>value = 5.263>, fillcolor="#fef9f5"] ;
235 -> 239 ;
240 [label=<squared_error = 3.022<br/>samples = 67<br/>value = 5.433>, fillcolor="#fef8f4"] ;
232 -> 240 ;
241 [label=<deadline &le; 739213.5<br/>squared_error = 2.959<br/>samples = 179<br/>value = 6.274>, fillcolor="#fdf4ee"] ;
221 -> 241 ;
242 [label=<squared_error = 2.2<br/>samples = 54<br/>value = 5.852>, fillcolor="#fdf6f1"] ;
241 -> 242 ;
243 [label=<start &le; 739209.5<br/>squared_error = 3.176<br/>samples = 125<br/>value = 6.456>, fillcolor="#fdf3ec"] ;
241 -> 243 ;
244 [label=<squared_error = 3.229<br/>samples = 61<br/>value = 6.131>, fillcolor="#fdf5ef"] ;
243 -> 244 ;
245 [label=<squared_error = 2.929<br/>samples = 64<br/>value = 6.766>, fillcolor="#fcf2ea"] ;
243 -> 245 ;
246 [label=<type_documentation &le; 0.5<br/>squared_error = 3.239<br/>samples = 840<br/>value = 4.532>, fillcolor="#fefcfb"] ;
220 -> 246 ;
247 [label=<technologies_python &le; 0.5<br/>squared_error = 3.035<br/>samples = 697<br/>value = 4.366>, fillcolor="#fffdfc"] ;
246 -> 247 ;
248 [label=<deadline &le; 739210.5<br/>squared_error = 2.962<br/>samples = 596<br/>value = 4.31>, fillcolor="#fffdfc"] ;
247 -> 248 ;
249 [label=<squared_error = 3.196<br/>samples = 67<br/>value = 4.597>, fillcolor="#fefcfa"] ;
248 -> 249 ;
250 [label=<type_refactor &le; 0.5<br/>squared_error = 2.921<br/>samples = 529<br/>value = 4.274>, fillcolor="#fffdfd"] ;
248 -> 250 ;
251 [label=<start &le; 739208.5<br/>squared_error = 2.957<br/>samples = 450<br/>value = 4.313>, fillcolor="#fffdfc"] ;
250 -> 251 ;
252 [label=<deadline &le; 739212.5<br/>squared_error = 3.341<br/>samples = 102<br/>value = 4.147>, fillcolor="#fffefe"] ;
251 -> 252 ;
253 [label=<squared_error = 2.874<br/>samples = 52<br/>value = 4.327>, fillcolor="#fffdfc"] ;
252 -> 253 ;
254 [label=<squared_error = 3.758<br/>samples = 50<br/>value = 3.96>, fillcolor="#ffffff"] ;
252 -> 254 ;
255 [label=<deadline &le; 739212.5<br/>squared_error = 2.834<br/>samples = 348<br/>value = 4.362>, fillcolor="#fffdfc"] ;
251 -> 255 ;
256 [label=<deadline &le; 739211.5<br/>squared_error = 2.586<br/>samples = 146<br/>value = 4.281>, fillcolor="#fffdfd"] ;
255 -> 256 ;
257 [label=<squared_error = 2.487<br/>samples = 85<br/>value = 4.353>, fillcolor="#fffdfc"] ;
256 -> 257 ;
258 [label=<squared_error = 2.705<br/>samples = 61<br/>value = 4.18>, fillcolor="#fffefd"] ;
256 -> 258 ;
259 [label=<start &le; 739209.5<br/>squared_error = 3.006<br/>samples = 202<br/>value = 4.421>, fillcolor="#fffdfc"] ;
255 -> 259 ;
260 [label=<squared_error = 3.356<br/>samples = 74<br/>value = 4.541>, fillcolor="#fefcfb"] ;
259 -> 260 ;
261 [label=<squared_error = 2.79<br/>samples = 128<br/>value = 4.352>, fillcolor="#fffdfc"] ;
259 -> 261 ;
262 [label=<squared_error = 2.656<br/>samples = 79<br/>value = 4.051>, fillcolor="#fffffe"] ;
250 -> 262 ;
263 [label=<squared_error = 3.341<br/>samples = 101<br/>value = 4.693>, fillcolor="#fefbf9"] ;
247 -> 263 ;
264 [label=<start &le; 739209.5<br/>squared_error = 3.442<br/>samples = 143<br/>value = 5.343>, fillcolor="#fef8f5"] ;
246 -> 264 ;
265 [label=<squared_error = 3.443<br/>samples = 62<br/>value = 5.516>, fillcolor="#fdf8f3"] ;
264 -> 265 ;
266 [label=<squared_error = 3.4<br/>samples = 81<br/>value = 5.21>, fillcolor="#fef9f6"] ;
264 -> 266 ;
267 [label=<squared_error = 3.858<br/>samples = 74<br/>value = 9.703>, fillcolor="#f9e4d4"] ;
197 -> 267 ;
268 [label=<team &le; 9.5<br/>squared_error = 3.895<br/>samples = 211<br/>value = 9.185>, fillcolor="#fae6d8"] ;
196 -> 268 ;
269 [label=<deadline &le; 739216.5<br/>squared_error = 3.49<br/>samples = 119<br/>value = 9.849>, fillcolor="#f9e3d3"] ;
268 -> 269 ;
270 [label=<squared_error = 2.903<br/>samples = 52<br/>value = 9.481>, fillcolor="#fae5d6"] ;
269 -> 270 ;
271 [label=<squared_error = 3.758<br/>samples = 67<br/>value = 10.134>, fillcolor="#f9e1d1"] ;
269 -> 271 ;
272 [label=<squared_error = 3.111<br/>samples = 92<br/>value = 8.326>, fillcolor="#fbeade"] ;
268 -> 272 ;
273 [label=<priority &le; 0.5<br/>squared_error = 17.844<br/>samples = 13089<br/>value = 12.607>, fillcolor="#f6d6be"] ;
1 -> 273 ;
274 [label=<team &le; 5.5<br/>squared_error = 31.069<br/>samples = 3337<br/>value = 14.489>, fillcolor="#f5cdb0"] ;
273 -> 274 ;
275 [label=<team &le; 3.5<br/>squared_error = 24.034<br/>samples = 1403<br/>value = 16.808>, fillcolor="#f2c29e"] ;
274 -> 275 ;
276 [label=<type_feature &le; 0.5<br/>squared_error = 22.592<br/>samples = 756<br/>value = 17.766>, fillcolor="#f1bd97"] ;
275 -> 276 ;
277 [label=<type_test &le; 0.5<br/>squared_error = 22.075<br/>samples = 481<br/>value = 18.119>, fillcolor="#f1bb95"] ;
276 -> 277 ;
278 [label=<team &le; 2.5<br/>squared_error = 20.694<br/>samples = 217<br/>value = 18.585>, fillcolor="#f1b991"] ;
277 -> 278 ;
279 [label=<deadline &le; 739220.5<br/>squared_error = 21.763<br/>samples = 129<br/>value = 18.86>, fillcolor="#f0b88f"] ;
278 -> 279 ;
280 [label=<squared_error = 18.369<br/>samples = 58<br/>value = 18.638>, fillcolor="#f1b991"] ;
279 -> 280 ;
281 [label=<squared_error = 24.463<br/>samples = 71<br/>value = 19.042>, fillcolor="#f0b78e"] ;
279 -> 281 ;
282 [label=<squared_error = 18.853<br/>samples = 88<br/>value = 18.182>, fillcolor="#f1bb94"] ;
278 -> 282 ;
283 [label=<start &le; 739210.5<br/>squared_error = 22.884<br/>samples = 264<br/>value = 17.735>, fillcolor="#f1bd97"] ;
277 -> 283 ;
284 [label=<team &le; 1.5<br/>squared_error = 23.396<br/>samples = 203<br/>value = 18.133>, fillcolor="#f1bb95"] ;
283 -> 284 ;
285 [label=<squared_error = 23.613<br/>samples = 59<br/>value = 19.254>, fillcolor="#f0b68c"] ;
284 -> 285 ;
286 [label=<start &le; 739209.5<br/>squared_error = 22.581<br/>samples = 144<br/>value = 17.674>, fillcolor="#f1bd98"] ;
284 -> 286 ;
287 [label=<squared_error = 23.037<br/>samples = 93<br/>value = 17.409>, fillcolor="#f2bf9a"] ;
286 -> 287 ;
288 [label=<squared_error = 21.387<br/>samples = 51<br/>value = 18.157>, fillcolor="#f1bb94"] ;
286 -> 288 ;
289 [label=<squared_error = 18.898<br/>samples = 61<br/>value = 16.41>, fillcolor="#f3c3a1"] ;
283 -> 289 ;
290 [label=<team &le; 1.5<br/>squared_error = 22.898<br/>samples = 275<br/>value = 17.149>, fillcolor="#f2c09c"] ;
276 -> 290 ;
291 [label=<squared_error = 21.379<br/>samples = 92<br/>value = 18.348>, fillcolor="#f1ba93"] ;
290 -> 291 ;
292 [label=<start &le; 739210.5<br/>squared_error = 22.576<br/>samples = 183<br/>value = 16.546>, fillcolor="#f3c3a0"] ;
290 -> 292 ;
293 [label=<team &le; 2.5<br/>squared_error = 21.453<br/>samples = 121<br/>value = 16.793>, fillcolor="#f2c29f"] ;
292 -> 293 ;
294 [label=<squared_error = 22.789<br/>samples = 54<br/>value = 17.37>, fillcolor="#f2bf9a"] ;
293 -> 294 ;
295 [label=<squared_error = 19.892<br/>samples = 67<br/>value = 16.328>, fillcolor="#f3c4a2"] ;
293 -> 295 ;
296 [label=<squared_error = 24.415<br/>samples = 62<br/>value = 16.065>, fillcolor="#f3c5a4"] ;
292 -> 296 ;
297 [label=<deadline &le; 739221.5<br/>squared_error = 23.392<br/>samples = 647<br/>value = 15.688>, fillcolor="#f3c7a7"] ;
275 -> 297 ;
298 [label=<type_feature &le; 0.5<br/>squared_error = 22.7<br/>samples = 506<br/>value = 15.273>, fillcolor="#f4c9aa"] ;
297 -> 298 ;
299 [label=<type_test &le; 0.5<br/>squared_error = 21.352<br/>samples = 321<br/>value = 15.798>, fillcolor="#f3c6a6"] ;
298 -> 299 ;
300 [label=<team &le; 4.5<br/>squared_error = 21.11<br/>samples = 135<br/>value = 16.23>, fillcolor="#f3c4a3"] ;
299 -> 300 ;
301 [label=<squared_error = 24.465<br/>samples = 63<br/>value = 15.587>, fillcolor="#f4c7a8"] ;
300 -> 301 ;
302 [label=<squared_error = 17.498<br/>samples = 72<br/>value = 16.792>, fillcolor="#f2c29f"] ;
300 -> 302 ;
303 [label=<deadline &le; 739220.5<br/>squared_error = 21.293<br/>samples = 186<br/>value = 15.484>, fillcolor="#f4c8a8"] ;
299 -> 303 ;
304 [label=<start &le; 739209.5<br/>squared_error = 20.566<br/>samples = 131<br/>value = 15.687>, fillcolor="#f3c7a7"] ;
303 -> 304 ;
305 [label=<squared_error = 20.387<br/>samples = 70<br/>value = 16.314>, fillcolor="#f3c4a2"] ;
304 -> 305 ;
306 [label=<squared_error = 19.802<br/>samples = 61<br/>value = 14.967>, fillcolor="#f4caac"] ;
304 -> 306 ;
307 [label=<squared_error = 22.691<br/>samples = 55<br/>value = 15.0>, fillcolor="#f4caac"] ;
303 -> 307 ;
308 [label=<deadline &le; 739219.5<br/>squared_error = 23.734<br/>samples = 185<br/>value = 14.362>, fillcolor="#f5cdb1"] ;
298 -> 308 ;
309 [label=<squared_error = 20.223<br/>samples = 79<br/>value = 13.544>, fillcolor="#f6d1b7"] ;
308 -> 309 ;
310 [label=<deadline &le; 739220.5<br/>squared_error = 25.48<br/>samples = 106<br/>value = 14.972>, fillcolor="#f4caac"] ;
308 -> 310 ;
311 [label=<squared_error = 22.121<br/>samples = 51<br/>value = 15.608>, fillcolor="#f4c7a7"] ;
310 -> 311 ;
312 [label=<squared_error = 27.872<br/>samples = 55<br/>value = 14.382>, fillcolor="#f5cdb1"] ;
310 -> 312 ;
313 [label=<team &le; 4.5<br/>squared_error = 23.039<br/>samples = 141<br/>value = 17.177>, fillcolor="#f2c09c"] ;
297 -> 313 ;
314 [label=<squared_error = 20.848<br/>samples = 66<br/>value = 18.0>, fillcolor="#f1bc96"] ;
313 -> 314 ;
315 [label=<squared_error = 23.848<br/>samples = 75<br/>value = 16.453>, fillcolor="#f3c3a1"] ;
313 -> 315 ;
316 [label=<type_bug &le; 0.5<br/>squared_error = 29.446<br/>samples = 1934<br/>value = 12.808>, fillcolor="#f6d5bd"] ;
274 -> 316 ;
317 [label=<technologies_c++ &le; 0.5<br/>squared_error = 26.042<br/>samples = 1752<br/>value = 12.178>, fillcolor="#f7d8c1"] ;
316 -> 317 ;
318 [label=<team &le; 7.5<br/>squared_error = 24.912<br/>samples = 1515<br/>value = 11.712>, fillcolor="#f7dac5"] ;
317 -> 318 ;
319 [label=<team &le; 6.5<br/>squared_error = 23.76<br/>samples = 574<br/>value = 13.274>, fillcolor="#f6d2b9"] ;
318 -> 319 ;
320 [label=<type_feature &le; 0.5<br/>squared_error = 24.348<br/>samples = 287<br/>value = 13.833>, fillcolor="#f5d0b5"] ;
319 -> 320 ;
321 [label=<type_test &le; 0.5<br/>squared_error = 25.03<br/>samples = 191<br/>value = 14.22>, fillcolor="#f5ceb2"] ;
320 -> 321 ;
322 [label=<squared_error = 27.317<br/>samples = 98<br/>value = 14.622>, fillcolor="#f4ccaf"] ;
321 -> 322 ;
323 [label=<squared_error = 22.27<br/>samples = 93<br/>value = 13.796>, fillcolor="#f5d0b5"] ;
321 -> 323 ;
324 [label=<squared_error = 22.1<br/>samples = 96<br/>value = 13.062>, fillcolor="#f6d3bb"] ;
320 -> 324 ;
325 [label=<technologies_java &le; 0.5<br/>squared_error = 22.546<br/>samples = 287<br/>value = 12.714>, fillcolor="#f6d5bd"] ;
319 -> 325 ;
326 [label=<deadline &le; 739220.5<br/>squared_error = 21.732<br/>samples = 233<br/>value = 12.863>, fillcolor="#f6d4bc"] ;
325 -> 326 ;
327 [label=<start &le; 739209.5<br/>squared_error = 21.414<br/>samples = 147<br/>value = 13.122>, fillcolor="#f6d3ba"] ;
326 -> 327 ;
328 [label=<squared_error = 20.475<br/>samples = 71<br/>value = 12.479>, fillcolor="#f7d6bf"] ;
327 -> 328 ;
329 [label=<squared_error = 21.542<br/>samples = 76<br/>value = 13.724>, fillcolor="#f5d0b6"] ;
327 -> 329 ;
330 [label=<squared_error = 21.964<br/>samples = 86<br/>value = 12.419>, fillcolor="#f7d7bf"] ;
326 -> 330 ;
331 [label=<squared_error = 25.55<br/>samples = 54<br/>value = 12.074>, fillcolor="#f7d8c2"] ;
325 -> 331 ;
332 [label=<type_manual testing &le; 0.5<br/>squared_error = 23.218<br/>samples = 941<br/>value = 10.759>, fillcolor="#f8decc"] ;
318 -> 332 ;
333 [label=<team &le; 9.5<br/>squared_error = 22.413<br/>samples = 871<br/>value = 10.491>, fillcolor="#f9e0ce"] ;
332 -> 333 ;
334 [label=<type_test &le; 0.5<br/>squared_error = 21.313<br/>samples = 599<br/>value = 11.022>, fillcolor="#f8ddca"] ;
333 -> 334 ;
335 [label=<team &le; 8.5<br/>squared_error = 20.38<br/>samples = 368<br/>value = 11.372>, fillcolor="#f8dcc7"] ;
334 -> 335 ;
336 [label=<type_documentation &le; 0.5<br/>squared_error = 21.388<br/>samples = 193<br/>value = 11.772>, fillcolor="#f7dac4"] ;
335 -> 336 ;
337 [label=<deadline &le; 739220.5<br/>squared_error = 22.249<br/>samples = 139<br/>value = 11.475>, fillcolor="#f8dbc7"] ;
336 -> 337 ;
338 [label=<squared_error = 21.835<br/>samples = 71<br/>value = 12.099>, fillcolor="#f7d8c2"] ;
337 -> 338 ;
339 [label=<squared_error = 21.851<br/>samples = 68<br/>value = 10.824>, fillcolor="#f8decb"] ;
337 -> 339 ;
340 [label=<squared_error = 18.36<br/>samples = 54<br/>value = 12.537>, fillcolor="#f7d6bf"] ;
336 -> 340 ;
341 [label=<type_documentation &le; 0.5<br/>squared_error = 18.898<br/>samples = 175<br/>value = 10.931>, fillcolor="#f8decb"] ;
335 -> 341 ;
342 [label=<deadline &le; 739219.5<br/>squared_error = 19.653<br/>samples = 122<br/>value = 10.738>, fillcolor="#f8dfcc"] ;
341 -> 342 ;
343 [label=<squared_error = 17.711<br/>samples = 55<br/>value = 10.327>, fillcolor="#f9e1cf"] ;
342 -> 343 ;
344 [label=<squared_error = 20.994<br/>samples = 67<br/>value = 11.075>, fillcolor="#f8ddca"] ;
342 -> 344 ;
345 [label=<squared_error = 16.876<br/>samples = 53<br/>value = 11.377>, fillcolor="#f8dcc7"] ;
341 -> 345 ;
346 [label=<start &le; 739210.5<br/>squared_error = 22.292<br/>samples = 231<br/>value = 10.463>, fillcolor="#f9e0ce"] ;
334 -> 346 ;
347 [label=<team &le; 8.5<br/>squared_error = 22.326<br/>samples = 167<br/>value = 10.198>, fillcolor="#f9e1d0"] ;
346 -> 347 ;
348 [label=<squared_error = 23.287<br/>samples = 82<br/>value = 10.927>, fillcolor="#f8decb"] ;
347 -> 348 ;
349 [label=<squared_error = 20.391<br/>samples = 85<br/>value = 9.494>, fillcolor="#fae5d5"] ;
347 -> 349 ;
350 [label=<squared_error = 21.538<br/>samples = 64<br/>value = 11.156>, fillcolor="#f8ddc9"] ;
346 -> 350 ;
351 [label=<type_test &le; 0.5<br/>squared_error = 22.851<br/>samples = 272<br/>value = 9.324>, fillcolor="#fae5d7"] ;
333 -> 351 ;
352 [label=<type_feature &le; 0.5<br/>squared_error = 22.21<br/>samples = 187<br/>value = 9.701>, fillcolor="#f9e4d4"] ;
351 -> 352 ;
353 [label=<squared_error = 24.983<br/>samples = 73<br/>value = 10.315>, fillcolor="#f9e1cf"] ;
352 -> 353 ;
354 [label=<start &le; 739209.5<br/>squared_error = 20.037<br/>samples = 114<br/>value = 9.307>, fillcolor="#fae5d7"] ;
352 -> 354 ;
355 [label=<squared_error = 18.321<br/>samples = 52<br/>value = 8.712>, fillcolor="#fae8db"] ;
354 -> 355 ;
356 [label=<squared_error = 20.93<br/>samples = 62<br/>value = 9.806>, fillcolor="#f9e3d3"] ;
354 -> 356 ;
357 [label=<squared_error = 23.262<br/>samples = 85<br/>value = 8.494>, fillcolor="#fbe9dd"] ;
351 -> 357 ;
358 [label=<squared_error = 21.278<br/>samples = 70<br/>value = 14.086>, fillcolor="#f5cfb3"] ;
332 -> 358 ;
359 [label=<team &le; 8.5<br/>squared_error = 22.987<br/>samples = 237<br/>value = 15.16>, fillcolor="#f4c9ab"] ;
317 -> 359 ;
360 [label=<deadline &le; 739219.5<br/>squared_error = 21.797<br/>samples = 127<br/>value = 16.15>, fillcolor="#f3c5a3"] ;
359 -> 360 ;
361 [label=<squared_error = 19.713<br/>samples = 52<br/>value = 15.692>, fillcolor="#f3c7a7"] ;
360 -> 361 ;
362 [label=<squared_error = 22.996<br/>samples = 75<br/>value = 16.467>, fillcolor="#f3c3a1"] ;
360 -> 362 ;
363 [label=<team &le; 9.5<br/>squared_error = 21.927<br/>samples = 110<br/>value = 14.018>, fillcolor="#f5cfb3"] ;
359 -> 363 ;
364 [label=<squared_error = 17.562<br/>samples = 52<br/>value = 14.231>, fillcolor="#f5ceb2"] ;
363 -> 364 ;
365 [label=<squared_error = 25.763<br/>samples = 58<br/>value = 13.828>, fillcolor="#f5d0b5"] ;
363 -> 365 ;
366 [label=<team &le; 8.5<br/>squared_error = 21.664<br/>samples = 182<br/>value = 18.868>, fillcolor="#f0b88f"] ;
316 -> 366 ;
367 [label=<squared_error = 20.579<br/>samples = 60<br/>value = 20.767>, fillcolor="#eeaf81"] ;
366 -> 367 ;
368 [label=<start &le; 739209.5<br/>squared_error = 19.553<br/>samples = 122<br/>value = 17.934>, fillcolor="#f1bc96"] ;
366 -> 368 ;
369 [label=<squared_error = 17.372<br/>samples = 57<br/>value = 18.526>, fillcolor="#f1b992"] ;
368 -> 369 ;
370 [label=<squared_error = 20.889<br/>samples = 65<br/>value = 17.415>, fillcolor="#f2bf9a"] ;
368 -> 370 ;
371 [label=<team &le; 3.5<br/>squared_error = 11.692<br/>samples = 9752<br/>value = 11.963>, fillcolor="#f7d9c3"] ;
273 -> 371 ;
372 [label=<priority &le; 1.5<br/>squared_error = 7.959<br/>samples = 3226<br/>value = 13.343>, fillcolor="#f6d2b8"] ;
371 -> 372 ;
373 [label=<team &le; 1.5<br/>squared_error = 11.341<br/>samples = 1094<br/>value = 15.022>, fillcolor="#f4caac"] ;
372 -> 373 ;
374 [label=<technologies_java &le; 0.5<br/>squared_error = 10.955<br/>samples = 294<br/>value = 16.085>, fillcolor="#f3c5a4"] ;
373 -> 374 ;
375 [label=<type_feature &le; 0.5<br/>squared_error = 10.813<br/>samples = 227<br/>value = 16.233>, fillcolor="#f3c4a3"] ;
374 -> 375 ;
376 [label=<deadline &le; 739220.5<br/>squared_error = 10.857<br/>samples = 148<br/>value = 16.034>, fillcolor="#f3c5a4"] ;
375 -> 376 ;
377 [label=<squared_error = 10.308<br/>samples = 64<br/>value = 15.859>, fillcolor="#f3c6a6"] ;
376 -> 377 ;
378 [label=<squared_error = 11.234<br/>samples = 84<br/>value = 16.167>, fillcolor="#f3c5a3"] ;
376 -> 378 ;
379 [label=<squared_error = 10.517<br/>samples = 79<br/>value = 16.608>, fillcolor="#f3c3a0"] ;
375 -> 379 ;
380 [label=<squared_error = 11.109<br/>samples = 67<br/>value = 15.582>, fillcolor="#f4c7a8"] ;
374 -> 380 ;
381 [label=<technologies_python &le; 0.5<br/>squared_error = 10.915<br/>samples = 800<br/>value = 14.631>, fillcolor="#f4ccaf"] ;
373 -> 381 ;
382 [label=<type_documentation &le; 0.5<br/>squared_error = 10.837<br/>samples = 688<br/>value = 14.791>, fillcolor="#f4cbae"] ;
381 -> 382 ;
383 [label=<deadline &le; 739221.5<br/>squared_error = 10.322<br/>samples = 579<br/>value = 14.62>, fillcolor="#f4ccaf"] ;
382 -> 383 ;
384 [label=<technologies_c# &le; 0.5<br/>squared_error = 9.978<br/>samples = 435<br/>value = 14.428>, fillcolor="#f5cdb0"] ;
383 -> 384 ;
385 [label=<team &le; 2.5<br/>squared_error = 9.927<br/>samples = 359<br/>value = 14.304>, fillcolor="#f5ceb1"] ;
384 -> 385 ;
386 [label=<type_feature &le; 0.5<br/>squared_error = 9.197<br/>samples = 144<br/>value = 14.66>, fillcolor="#f4ccaf"] ;
385 -> 386 ;
387 [label=<squared_error = 10.229<br/>samples = 84<br/>value = 14.762>, fillcolor="#f4cbae"] ;
386 -> 387 ;
388 [label=<squared_error = 7.716<br/>samples = 60<br/>value = 14.517>, fillcolor="#f5cdb0"] ;
386 -> 388 ;
389 [label=<type_test &le; 0.5<br/>squared_error = 10.275<br/>samples = 215<br/>value = 14.065>, fillcolor="#f5cfb3"] ;
385 -> 389 ;
390 [label=<deadline &le; 739219.5<br/>squared_error = 9.916<br/>samples = 134<br/>value = 13.784>, fillcolor="#f5d0b5"] ;
389 -> 390 ;
391 [label=<squared_error = 8.672<br/>samples = 61<br/>value = 13.984>, fillcolor="#f5cfb4"] ;
390 -> 391 ;
392 [label=<squared_error = 10.894<br/>samples = 73<br/>value = 13.616>, fillcolor="#f5d1b6"] ;
390 -> 392 ;
393 [label=<squared_error = 10.521<br/>samples = 81<br/>value = 14.531>, fillcolor="#f5ccb0"] ;
389 -> 393 ;
394 [label=<squared_error = 9.802<br/>samples = 76<br/>value = 15.013>, fillcolor="#f4caac"] ;
384 -> 394 ;
395 [label=<type_feature &le; 0.5<br/>squared_error = 10.911<br/>samples = 144<br/>value = 15.201>, fillcolor="#f4c9ab"] ;
383 -> 395 ;
396 [label=<squared_error = 10.054<br/>samples = 79<br/>value = 15.709>, fillcolor="#f3c7a7"] ;
395 -> 396 ;
397 [label=<squared_error = 11.258<br/>samples = 65<br/>value = 14.585>, fillcolor="#f5ccaf"] ;
395 -> 397 ;
398 [label=<start &le; 739209.5<br/>squared_error = 12.596<br/>samples = 109<br/>value = 15.697>, fillcolor="#f3c7a7"] ;
382 -> 398 ;
399 [label=<squared_error = 11.244<br/>samples = 53<br/>value = 15.962>, fillcolor="#f3c6a5"] ;
398 -> 399 ;
400 [label=<squared_error = 13.747<br/>samples = 56<br/>value = 15.446>, fillcolor="#f4c8a9"] ;
398 -> 400 ;
401 [label=<deadline &le; 739220.5<br/>squared_error = 10.281<br/>samples = 112<br/>value = 13.652>, fillcolor="#f5d1b6"] ;
381 -> 401 ;
402 [label=<squared_error = 9.884<br/>samples = 62<br/>value = 13.774>, fillcolor="#f5d0b5"] ;
401 -> 402 ;
403 [label=<squared_error = 10.73<br/>samples = 50<br/>value = 13.5>, fillcolor="#f6d1b7"] ;
401 -> 403 ;
404 [label=<team &le; 1.5<br/>squared_error = 4.035<br/>samples = 2132<br/>value = 12.482>, fillcolor="#f7d6bf"] ;
372 -> 404 ;
405 [label=<type_documentation &le; 0.5<br/>squared_error = 3.27<br/>samples = 571<br/>value = 13.45>, fillcolor="#f6d2b8"] ;
404 -> 405 ;
406 [label=<deadline &le; 739219.5<br/>squared_error = 3.253<br/>samples = 481<br/>value = 13.333>, fillcolor="#f6d2b9"] ;
405 -> 406 ;
407 [label=<squared_error = 2.755<br/>samples = 66<br/>value = 12.818>, fillcolor="#f6d5bc"] ;
406 -> 407 ;
408 [label=<technologies_java &le; 0.5<br/>squared_error = 3.284<br/>samples = 415<br/>value = 13.414>, fillcolor="#f6d2b8"] ;
406 -> 408 ;
409 [label=<technologies_c# &le; 0.5<br/>squared_error = 3.261<br/>samples = 322<br/>value = 13.531>, fillcolor="#f6d1b7"] ;
408 -> 409 ;
410 [label=<type_test &le; 0.5<br/>squared_error = 3.234<br/>samples = 262<br/>value = 13.469>, fillcolor="#f6d2b8"] ;
409 -> 410 ;
411 [label=<start &le; 739209.5<br/>squared_error = 3.266<br/>samples = 145<br/>value = 13.366>, fillcolor="#f6d2b8"] ;
410 -> 411 ;
412 [label=<squared_error = 3.837<br/>samples = 73<br/>value = 13.548>, fillcolor="#f6d1b7"] ;
411 -> 412 ;
413 [label=<squared_error = 2.62<br/>samples = 72<br/>value = 13.181>, fillcolor="#f6d3ba"] ;
411 -> 413 ;
414 [label=<start &le; 739209.5<br/>squared_error = 3.163<br/>samples = 117<br/>value = 13.598>, fillcolor="#f5d1b7"] ;
410 -> 414 ;
415 [label=<squared_error = 3.591<br/>samples = 55<br/>value = 13.436>, fillcolor="#f6d2b8"] ;
414 -> 415 ;
416 [label=<squared_error = 2.74<br/>samples = 62<br/>value = 13.742>, fillcolor="#f5d0b6"] ;
414 -> 416 ;
417 [label=<squared_error = 3.293<br/>samples = 60<br/>value = 13.8>, fillcolor="#f5d0b5"] ;
409 -> 417 ;
418 [label=<squared_error = 3.15<br/>samples = 93<br/>value = 13.011>, fillcolor="#f6d4bb"] ;
408 -> 418 ;
419 [label=<squared_error = 2.894<br/>samples = 90<br/>value = 14.078>, fillcolor="#f5cfb3"] ;
405 -> 419 ;
420 [label=<technologies_c++ &le; 0.5<br/>squared_error = 3.846<br/>samples = 1561<br/>value = 12.127>, fillcolor="#f7d8c2"] ;
404 -> 420 ;
421 [label=<team &le; 2.5<br/>squared_error = 3.478<br/>samples = 1511<br/>value = 12.018>, fillcolor="#f7d8c2"] ;
420 -> 421 ;
422 [label=<type_documentation &le; 0.5<br/>squared_error = 3.195<br/>samples = 724<br/>value = 12.449>, fillcolor="#f7d6bf"] ;
421 -> 422 ;
423 [label=<type_test &le; 0.5<br/>squared_error = 3.269<br/>samples = 615<br/>value = 12.343>, fillcolor="#f7d7c0"] ;
422 -> 423 ;
424 [label=<start &le; 739210.5<br/>squared_error = 3.219<br/>samples = 351<br/>value = 12.123>, fillcolor="#f7d8c2"] ;
423 -> 424 ;
425 [label=<deadline &le; 739219.5<br/>squared_error = 3.303<br/>samples = 269<br/>value = 11.959>, fillcolor="#f7d9c3"] ;
424 -> 425 ;
426 [label=<squared_error = 2.817<br/>samples = 94<br/>value = 11.585>, fillcolor="#f7dbc6"] ;
425 -> 426 ;
427 [label=<technologies_java &le; 0.5<br/>squared_error = 3.449<br/>samples = 175<br/>value = 12.16>, fillcolor="#f7d8c1"] ;
425 -> 427 ;
428 [label=<start &le; 739209.5<br/>squared_error = 3.641<br/>samples = 123<br/>value = 11.967>, fillcolor="#f7d9c3"] ;
427 -> 428 ;
429 [label=<squared_error = 3.954<br/>samples = 73<br/>value = 11.863>, fillcolor="#f7d9c4"] ;
428 -> 429 ;
430 [label=<squared_error = 3.146<br/>samples = 50<br/>value = 12.12>, fillcolor="#f7d8c2"] ;
428 -> 430 ;
431 [label=<squared_error = 2.698<br/>samples = 52<br/>value = 12.615>, fillcolor="#f6d6be"] ;
427 -> 431 ;
432 [label=<squared_error = 2.566<br/>samples = 82<br/>value = 12.659>, fillcolor="#f6d5be"] ;
424 -> 432 ;
433 [label=<technologies_sql &le; 0.5<br/>squared_error = 3.186<br/>samples = 264<br/>value = 12.636>, fillcolor="#f6d6be"] ;
423 -> 433 ;
434 [label=<deadline &le; 739221.5<br/>squared_error = 3.107<br/>samples = 210<br/>value = 12.486>, fillcolor="#f7d6bf"] ;
433 -> 434 ;
435 [label=<start &le; 739209.5<br/>squared_error = 3.0<br/>samples = 156<br/>value = 12.423>, fillcolor="#f7d7bf"] ;
434 -> 435 ;
436 [label=<squared_error = 3.156<br/>samples = 77<br/>value = 12.558>, fillcolor="#f7d6be"] ;
435 -> 436 ;
437 [label=<squared_error = 2.814<br/>samples = 79<br/>value = 12.291>, fillcolor="#f7d7c0"] ;
435 -> 437 ;
438 [label=<squared_error = 3.37<br/>samples = 54<br/>value = 12.667>, fillcolor="#f6d5be"] ;
434 -> 438 ;
439 [label=<squared_error = 3.062<br/>samples = 54<br/>value = 13.222>, fillcolor="#f6d3b9"] ;
433 -> 439 ;
440 [label=<deadline &le; 739220.5<br/>squared_error = 2.356<br/>samples = 109<br/>value = 13.046>, fillcolor="#f6d4bb"] ;
422 -> 440 ;
441 [label=<squared_error = 2.274<br/>samples = 53<br/>value = 12.906>, fillcolor="#f6d4bc"] ;
440 -> 441 ;
442 [label=<squared_error = 2.397<br/>samples = 56<br/>value = 13.179>, fillcolor="#f6d3ba"] ;
440 -> 442 ;
443 [label=<deadline &le; 739220.5<br/>squared_error = 3.409<br/>samples = 787<br/>value = 11.621>, fillcolor="#f7dac5"] ;
421 -> 443 ;
444 [label=<type_documentation &le; 0.5<br/>squared_error = 3.026<br/>samples = 507<br/>value = 11.387>, fillcolor="#f8dbc7"] ;
443 -> 444 ;
445 [label=<technologies_python &le; 0.5<br/>squared_error = 3.037<br/>samples = 429<br/>value = 11.305>, fillcolor="#f8dcc8"] ;
444 -> 445 ;
446 [label=<start &le; 739208.5<br/>squared_error = 3.01<br/>samples = 358<br/>value = 11.232>, fillcolor="#f8dcc8"] ;
445 -> 446 ;
447 [label=<squared_error = 3.313<br/>samples = 85<br/>value = 10.929>, fillcolor="#f8decb"] ;
446 -> 447 ;
448 [label=<deadline &le; 739219.5<br/>squared_error = 2.879<br/>samples = 273<br/>value = 11.326>, fillcolor="#f8dcc8"] ;
446 -> 448 ;
449 [label=<start &le; 739210.5<br/>squared_error = 2.742<br/>samples = 177<br/>value = 11.429>, fillcolor="#f8dbc7"] ;
448 -> 449 ;
450 [label=<type_feature &le; 0.5<br/>squared_error = 2.795<br/>samples = 121<br/>value = 11.488>, fillcolor="#f8dbc6"] ;
449 -> 450 ;
451 [label=<squared_error = 2.696<br/>samples = 67<br/>value = 11.537>, fillcolor="#f8dbc6"] ;
450 -> 451 ;
452 [label=<squared_error = 2.911<br/>samples = 54<br/>value = 11.426>, fillcolor="#f8dbc7"] ;
450 -> 452 ;
453 [label=<squared_error = 2.604<br/>samples = 56<br/>value = 11.304>, fillcolor="#f8dcc8"] ;
449 -> 453 ;
454 [label=<squared_error = 3.075<br/>samples = 96<br/>value = 11.135>, fillcolor="#f8ddc9"] ;
448 -> 454 ;
455 [label=<squared_error = 3.008<br/>samples = 71<br/>value = 11.676>, fillcolor="#f7dac5"] ;
445 -> 455 ;
456 [label=<squared_error = 2.729<br/>samples = 78<br/>value = 11.833>, fillcolor="#f7d9c4"] ;
444 -> 456 ;
457 [label=<technologies_nosql &le; 0.5<br/>squared_error = 3.823<br/>samples = 280<br/>value = 12.046>, fillcolor="#f7d8c2"] ;
443 -> 457 ;
458 [label=<type_test &le; 0.5<br/>squared_error = 3.861<br/>samples = 228<br/>value = 12.171>, fillcolor="#f7d8c1"] ;
457 -> 458 ;
459 [label=<deadline &le; 739221.5<br/>squared_error = 4.392<br/>samples = 142<br/>value = 12.387>, fillcolor="#f7d7c0"] ;
458 -> 459 ;
460 [label=<squared_error = 3.413<br/>samples = 89<br/>value = 12.157>, fillcolor="#f7d8c1"] ;
459 -> 460 ;
461 [label=<squared_error = 5.798<br/>samples = 53<br/>value = 12.774>, fillcolor="#f6d5bd"] ;
459 -> 461 ;
462 [label=<squared_error = 2.779<br/>samples = 86<br/>value = 11.814>, fillcolor="#f7d9c4"] ;
458 -> 462 ;
463 [label=<squared_error = 3.288<br/>samples = 52<br/>value = 11.5>, fillcolor="#f8dbc6"] ;
457 -> 463 ;
464 [label=<squared_error = 3.646<br/>samples = 50<br/>value = 15.44>, fillcolor="#f4c8a9"] ;
420 -> 464 ;
465 [label=<type_bug &le; 0.5<br/>squared_error = 12.13<br/>samples = 6526<br/>value = 11.281>, fillcolor="#f8dcc8"] ;
371 -> 465 ;
466 [label=<team &le; 7.5<br/>squared_error = 11.326<br/>samples = 5769<br/>value = 10.89>, fillcolor="#f8decb"] ;
465 -> 466 ;
467 [label=<technologies_c++ &le; 0.5<br/>squared_error = 9.918<br/>samples = 4075<br/>value = 11.426>, fillcolor="#f8dbc7"] ;
466 -> 467 ;
468 [label=<type_manual testing &le; 0.5<br/>squared_error = 9.322<br/>samples = 3422<br/>value = 11.032>, fillcolor="#f8ddca"] ;
467 -> 468 ;
469 [label=<priority &le; 1.5<br/>squared_error = 8.578<br/>samples = 3146<br/>value = 10.764>, fillcolor="#f8decc"] ;
468 -> 469 ;
470 [label=<team &le; 5.5<br/>squared_error = 10.901<br/>samples = 1686<br/>value = 11.66>, fillcolor="#f7dac5"] ;
469 -> 470 ;
471 [label=<team &le; 4.5<br/>squared_error = 9.995<br/>samples = 864<br/>value = 12.52>, fillcolor="#f7d6bf"] ;
470 -> 471 ;
472 [label=<type_documentation &le; 0.5<br/>squared_error = 9.916<br/>samples = 429<br/>value = 13.044>, fillcolor="#f6d4bb"] ;
471 -> 472 ;
473 [label=<start &le; 739208.5<br/>squared_error = 9.741<br/>samples = 331<br/>value = 12.858>, fillcolor="#f6d4bc"] ;
472 -> 473 ;
474 [label=<squared_error = 12.32<br/>samples = 83<br/>value = 12.337>, fillcolor="#f7d7c0"] ;
473 -> 474 ;
475 [label=<technologies_java &le; 0.5<br/>squared_error = 8.757<br/>samples = 248<br/>value = 13.032>, fillcolor="#f6d4bb"] ;
473 -> 475 ;
476 [label=<start &le; 739210.5<br/>squared_error = 9.357<br/>samples = 190<br/>value = 13.147>, fillcolor="#f6d3ba"] ;
475 -> 476 ;
477 [label=<squared_error = 9.295<br/>samples = 132<br/>value = 12.992>, fillcolor="#f6d4bb"] ;
476 -> 477 ;
478 [label=<squared_error = 9.319<br/>samples = 58<br/>value = 13.5>, fillcolor="#f6d1b7"] ;
476 -> 478 ;
479 [label=<squared_error = 6.605<br/>samples = 58<br/>value = 12.655>, fillcolor="#f6d5be"] ;
475 -> 479 ;
480 [label=<squared_error = 9.995<br/>samples = 98<br/>value = 13.673>, fillcolor="#f5d1b6"] ;
472 -> 480 ;
481 [label=<technologies_nosql &le; 0.5<br/>squared_error = 9.533<br/>samples = 435<br/>value = 12.002>, fillcolor="#f7d9c3"] ;
471 -> 481 ;
482 [label=<start &le; 739208.5<br/>squared_error = 9.419<br/>samples = 369<br/>value = 11.878>, fillcolor="#f7d9c4"] ;
481 -> 482 ;
483 [label=<squared_error = 9.133<br/>samples = 90<br/>value = 11.333>, fillcolor="#f8dcc8"] ;
482 -> 483 ;
484 [label=<deadline &le; 739218.5<br/>squared_error = 9.384<br/>samples = 279<br/>value = 12.054>, fillcolor="#f7d8c2"] ;
482 -> 484 ;
485 [label=<squared_error = 8.829<br/>samples = 60<br/>value = 12.733>, fillcolor="#f6d5bd"] ;
484 -> 485 ;
486 [label=<deadline &le; 739221.5<br/>squared_error = 9.375<br/>samples = 219<br/>value = 11.868>, fillcolor="#f7d9c4"] ;
484 -> 486 ;
487 [label=<squared_error = 9.459<br/>samples = 167<br/>value = 11.952>, fillcolor="#f7d9c3"] ;
486 -> 487 ;
488 [label=<squared_error = 9.01<br/>samples = 52<br/>value = 11.596>, fillcolor="#f7dac6"] ;
486 -> 488 ;
489 [label=<squared_error = 9.605<br/>samples = 66<br/>value = 12.697>, fillcolor="#f6d5bd"] ;
481 -> 489 ;
490 [label=<team &le; 6.5<br/>squared_error = 10.258<br/>samples = 822<br/>value = 10.755>, fillcolor="#f8dfcc"] ;
470 -> 490 ;
491 [label=<type_feature &le; 0.5<br/>squared_error = 9.522<br/>samples = 388<br/>value = 11.193>, fillcolor="#f8dcc9"] ;
490 -> 491 ;
492 [label=<deadline &le; 739220.5<br/>squared_error = 9.11<br/>samples = 246<br/>value = 11.545>, fillcolor="#f8dbc6"] ;
491 -> 492 ;
493 [label=<type_test &le; 0.5<br/>squared_error = 8.418<br/>samples = 138<br/>value = 11.804>, fillcolor="#f7d9c4"] ;
492 -> 493 ;
494 [label=<squared_error = 7.891<br/>samples = 67<br/>value = 11.478>, fillcolor="#f8dbc7"] ;
493 -> 494 ;
495 [label=<squared_error = 8.72<br/>samples = 71<br/>value = 12.113>, fillcolor="#f7d8c2"] ;
493 -> 495 ;
496 [label=<start &le; 739209.5<br/>squared_error = 9.797<br/>samples = 108<br/>value = 11.213>, fillcolor="#f8dcc9"] ;
492 -> 496 ;
497 [label=<squared_error = 10.383<br/>samples = 56<br/>value = 10.786>, fillcolor="#f8decc"] ;
496 -> 497 ;
498 [label=<squared_error = 8.759<br/>samples = 52<br/>value = 11.673>, fillcolor="#f7dac5"] ;
496 -> 498 ;
499 [label=<start &le; 739209.5<br/>squared_error = 9.651<br/>samples = 142<br/>value = 10.585>, fillcolor="#f8dfcd"] ;
491 -> 499 ;
500 [label=<squared_error = 7.94<br/>samples = 69<br/>value = 10.87>, fillcolor="#f8decb"] ;
499 -> 500 ;
501 [label=<squared_error = 11.12<br/>samples = 73<br/>value = 10.315>, fillcolor="#f9e1cf"] ;
499 -> 501 ;
502 [label=<type_documentation &le; 0.5<br/>squared_error = 10.591<br/>samples = 434<br/>value = 10.364>, fillcolor="#f9e0cf"] ;
490 -> 502 ;
503 [label=<deadline &le; 739219.5<br/>squared_error = 10.335<br/>samples = 351<br/>value = 10.154>, fillcolor="#f9e1d0"] ;
502 -> 503 ;
504 [label=<deadline &le; 739218.5<br/>squared_error = 10.814<br/>samples = 138<br/>value = 9.674>, fillcolor="#f9e4d4"] ;
503 -> 504 ;
505 [label=<squared_error = 10.832<br/>samples = 77<br/>value = 9.805>, fillcolor="#f9e3d3"] ;
504 -> 505 ;
506 [label=<squared_error = 10.742<br/>samples = 61<br/>value = 9.508>, fillcolor="#fae4d5"] ;
504 -> 506 ;
507 [label=<deadline &le; 739221.5<br/>squared_error = 9.779<br/>samples = 213<br/>value = 10.465>, fillcolor="#f9e0ce"] ;
503 -> 507 ;
508 [label=<start &le; 739209.5<br/>squared_error = 9.194<br/>samples = 154<br/>value = 10.708>, fillcolor="#f8dfcc"] ;
507 -> 508 ;
509 [label=<squared_error = 10.022<br/>samples = 86<br/>value = 10.244>, fillcolor="#f9e1d0"] ;
508 -> 509 ;
510 [label=<squared_error = 7.531<br/>samples = 68<br/>value = 11.294>, fillcolor="#f8dcc8"] ;
508 -> 510 ;
511 [label=<squared_error = 10.751<br/>samples = 59<br/>value = 9.831>, fillcolor="#f9e3d3"] ;
507 -> 511 ;
512 [label=<squared_error = 10.695<br/>samples = 83<br/>value = 11.253>, fillcolor="#f8dcc8"] ;
502 -> 512 ;
513 [label=<team &le; 5.5<br/>squared_error = 3.899<br/>samples = 1460<br/>value = 9.729>, fillcolor="#f9e3d4"] ;
469 -> 513 ;
514 [label=<team &le; 4.5<br/>squared_error = 3.29<br/>samples = 1063<br/>value = 10.198>, fillcolor="#f9e1d0"] ;
513 -> 514 ;
515 [label=<type_documentation &le; 0.5<br/>squared_error = 3.102<br/>samples = 616<br/>value = 10.62>, fillcolor="#f8dfcd"] ;
514 -> 515 ;
516 [label=<start &le; 739210.5<br/>squared_error = 3.063<br/>samples = 499<br/>value = 10.479>, fillcolor="#f9e0ce"] ;
515 -> 516 ;
517 [label=<start &le; 739208.5<br/>squared_error = 2.989<br/>samples = 378<br/>value = 10.389>, fillcolor="#f9e0cf"] ;
516 -> 517 ;
518 [label=<deadline &le; 739219.5<br/>squared_error = 3.105<br/>samples = 112<br/>value = 10.545>, fillcolor="#f9e0ce"] ;
517 -> 518 ;
519 [label=<squared_error = 3.344<br/>samples = 53<br/>value = 10.491>, fillcolor="#f9e0ce"] ;
518 -> 519 ;
520 [label=<squared_error = 2.885<br/>samples = 59<br/>value = 10.593>, fillcolor="#f8dfcd"] ;
518 -> 520 ;
521 [label=<deadline &le; 739219.5<br/>squared_error = 2.926<br/>samples = 266<br/>value = 10.323>, fillcolor="#f9e1cf"] ;
517 -> 521 ;
522 [label=<squared_error = 2.942<br/>samples = 162<br/>value = 10.253>, fillcolor="#f9e1d0"] ;
521 -> 522 ;
523 [label=<squared_error = 2.88<br/>samples = 104<br/>value = 10.433>, fillcolor="#f9e0ce"] ;
521 -> 523 ;
524 [label=<type_test &le; 0.5<br/>squared_error = 3.19<br/>samples = 121<br/>value = 10.76>, fillcolor="#f8decc"] ;
516 -> 524 ;
525 [label=<squared_error = 3.136<br/>samples = 63<br/>value = 10.556>, fillcolor="#f8dfcd"] ;
524 -> 525 ;
526 [label=<squared_error = 3.155<br/>samples = 58<br/>value = 10.983>, fillcolor="#f8ddca"] ;
524 -> 526 ;
527 [label=<start &le; 739209.5<br/>squared_error = 2.822<br/>samples = 117<br/>value = 11.222>, fillcolor="#f8dcc8"] ;
515 -> 527 ;
528 [label=<squared_error = 2.385<br/>samples = 58<br/>value = 11.448>, fillcolor="#f8dbc7"] ;
527 -> 528 ;
529 [label=<squared_error = 3.153<br/>samples = 59<br/>value = 11.0>, fillcolor="#f8ddca"] ;
527 -> 529 ;
530 [label=<type_documentation &le; 0.5<br/>squared_error = 2.966<br/>samples = 447<br/>value = 9.617>, fillcolor="#f9e4d4"] ;
514 -> 530 ;
531 [label=<technologies_sql &le; 0.5<br/>squared_error = 2.654<br/>samples = 368<br/>value = 9.438>, fillcolor="#fae5d6"] ;
530 -> 531 ;
532 [label=<type_feature &le; 0.5<br/>squared_error = 2.609<br/>samples = 308<br/>value = 9.344>, fillcolor="#fae5d7"] ;
531 -> 532 ;
533 [label=<start &le; 739209.5<br/>squared_error = 2.792<br/>samples = 173<br/>value = 9.468>, fillcolor="#fae5d6"] ;
532 -> 533 ;
534 [label=<squared_error = 2.551<br/>samples = 79<br/>value = 9.557>, fillcolor="#f9e4d5"] ;
533 -> 534 ;
535 [label=<squared_error = 2.983<br/>samples = 94<br/>value = 9.394>, fillcolor="#fae5d6"] ;
533 -> 535 ;
536 [label=<start &le; 739209.5<br/>squared_error = 2.329<br/>samples = 135<br/>value = 9.185>, fillcolor="#fae6d8"] ;
532 -> 536 ;
537 [label=<squared_error = 2.368<br/>samples = 67<br/>value = 9.075>, fillcolor="#fae7d9"] ;
536 -> 537 ;
538 [label=<squared_error = 2.266<br/>samples = 68<br/>value = 9.294>, fillcolor="#fae5d7"] ;
536 -> 538 ;
539 [label=<squared_error = 2.61<br/>samples = 60<br/>value = 9.917>, fillcolor="#f9e3d2"] ;
531 -> 539 ;
540 [label=<squared_error = 3.564<br/>samples = 79<br/>value = 10.456>, fillcolor="#f9e0ce"] ;
530 -> 540 ;
541 [label=<team &le; 6.5<br/>squared_error = 3.363<br/>samples = 397<br/>value = 8.474>, fillcolor="#fbe9dd"] ;
513 -> 541 ;
542 [label=<type_documentation &le; 0.5<br/>squared_error = 3.242<br/>samples = 280<br/>value = 8.85>, fillcolor="#fae8da"] ;
541 -> 542 ;
543 [label=<type_test &le; 0.5<br/>squared_error = 2.747<br/>samples = 193<br/>value = 8.497>, fillcolor="#fbe9dd"] ;
542 -> 543 ;
544 [label=<squared_error = 2.52<br/>samples = 112<br/>value = 8.625>, fillcolor="#fae9dc"] ;
543 -> 544 ;
545 [label=<squared_error = 3.008<br/>samples = 81<br/>value = 8.321>, fillcolor="#fbeade"] ;
543 -> 545 ;
546 [label=<squared_error = 3.451<br/>samples = 87<br/>value = 9.632>, fillcolor="#f9e4d4"] ;
542 -> 546 ;
547 [label=<start &le; 739209.5<br/>squared_error = 2.501<br/>samples = 117<br/>value = 7.573>, fillcolor="#fbeee4"] ;
541 -> 547 ;
548 [label=<squared_error = 2.605<br/>samples = 61<br/>value = 7.426>, fillcolor="#fceee5"] ;
547 -> 548 ;
549 [label=<squared_error = 2.339<br/>samples = 56<br/>value = 7.732>, fillcolor="#fbede3"] ;
547 -> 549 ;
550 [label=<priority &le; 1.5<br/>squared_error = 7.678<br/>samples = 276<br/>value = 14.083>, fillcolor="#f5cfb3"] ;
468 -> 550 ;
551 [label=<squared_error = 12.019<br/>samples = 80<br/>value = 15.738>, fillcolor="#f3c7a7"] ;
550 -> 551 ;
552 [label=<team &le; 5.5<br/>squared_error = 4.333<br/>samples = 196<br/>value = 13.408>, fillcolor="#f6d2b8"] ;
550 -> 552 ;
553 [label=<squared_error = 3.46<br/>samples = 67<br/>value = 14.821>, fillcolor="#f4cbad"] ;
552 -> 553 ;
554 [label=<team &le; 6.5<br/>squared_error = 3.212<br/>samples = 129<br/>value = 12.674>, fillcolor="#f6d5be"] ;
552 -> 554 ;
555 [label=<squared_error = 3.222<br/>samples = 65<br/>value = 13.092>, fillcolor="#f6d3ba"] ;
554 -> 555 ;
556 [label=<squared_error = 2.844<br/>samples = 64<br/>value = 12.25>, fillcolor="#f7d7c1"] ;
554 -> 556 ;
557 [label=<priority &le; 1.5<br/>squared_error = 7.953<br/>samples = 653<br/>value = 13.493>, fillcolor="#f6d1b7"] ;
467 -> 557 ;
558 [label=<team &le; 6.5<br/>squared_error = 11.784<br/>samples = 201<br/>value = 15.204>, fillcolor="#f4c9ab"] ;
557 -> 558 ;
559 [label=<type_test &le; 0.5<br/>squared_error = 10.514<br/>samples = 127<br/>value = 15.787>, fillcolor="#f3c6a6"] ;
558 -> 559 ;
560 [label=<squared_error = 11.486<br/>samples = 73<br/>value = 15.219>, fillcolor="#f4c9aa"] ;
559 -> 560 ;
561 [label=<squared_error = 8.173<br/>samples = 54<br/>value = 16.556>, fillcolor="#f3c3a0"] ;
559 -> 561 ;
562 [label=<squared_error = 12.378<br/>samples = 74<br/>value = 14.203>, fillcolor="#f5ceb2"] ;
558 -> 562 ;
563 [label=<team &le; 5.5<br/>squared_error = 4.369<br/>samples = 452<br/>value = 12.732>, fillcolor="#f6d5bd"] ;
557 -> 563 ;
564 [label=<team &le; 4.5<br/>squared_error = 3.943<br/>samples = 173<br/>value = 13.896>, fillcolor="#f5cfb4"] ;
563 -> 564 ;
565 [label=<squared_error = 3.848<br/>samples = 71<br/>value = 14.31>, fillcolor="#f5ceb1"] ;
564 -> 565 ;
566 [label=<squared_error = 3.807<br/>samples = 102<br/>value = 13.608>, fillcolor="#f5d1b7"] ;
564 -> 566 ;
567 [label=<team &le; 6.5<br/>squared_error = 3.272<br/>samples = 279<br/>value = 12.011>, fillcolor="#f7d9c3"] ;
563 -> 567 ;
568 [label=<start &le; 739209.5<br/>squared_error = 2.859<br/>samples = 121<br/>value = 12.446>, fillcolor="#f7d6bf"] ;
567 -> 568 ;
569 [label=<squared_error = 2.723<br/>samples = 56<br/>value = 12.75>, fillcolor="#f6d5bd"] ;
568 -> 569 ;
570 [label=<squared_error = 2.827<br/>samples = 65<br/>value = 12.185>, fillcolor="#f7d8c1"] ;
568 -> 570 ;
571 [label=<deadline &le; 739219.5<br/>squared_error = 3.333<br/>samples = 158<br/>value = 11.677>, fillcolor="#f7dac5"] ;
567 -> 571 ;
572 [label=<squared_error = 2.855<br/>samples = 66<br/>value = 11.197>, fillcolor="#f8dcc9"] ;
571 -> 572 ;
573 [label=<squared_error = 3.391<br/>samples = 92<br/>value = 12.022>, fillcolor="#f7d8c2"] ;
571 -> 573 ;
574 [label=<type_manual testing &le; 0.5<br/>squared_error = 12.357<br/>samples = 1694<br/>value = 9.6>, fillcolor="#f9e4d5"] ;
466 -> 574 ;
575 [label=<technologies_c++ &le; 0.5<br/>squared_error = 12.029<br/>samples = 1381<br/>value = 9.112>, fillcolor="#fae6d8"] ;
574 -> 575 ;
576 [label=<team &le; 8.5<br/>squared_error = 10.817<br/>samples = 927<br/>value = 8.224>, fillcolor="#fbebdf"] ;
575 -> 576 ;
577 [label=<type_feature &le; 0.5<br/>squared_error = 10.039<br/>samples = 385<br/>value = 9.114>, fillcolor="#fae6d8"] ;
576 -> 577 ;
578 [label=<type_documentation &le; 0.5<br/>squared_error = 9.747<br/>samples = 258<br/>value = 9.38>, fillcolor="#fae5d6"] ;
577 -> 578 ;
579 [label=<deadline &le; 739219.5<br/>squared_error = 9.521<br/>samples = 167<br/>value = 9.156>, fillcolor="#fae6d8"] ;
578 -> 579 ;
580 [label=<squared_error = 8.935<br/>samples = 73<br/>value = 9.507>, fillcolor="#fae4d5"] ;
579 -> 580 ;
581 [label=<squared_error = 9.805<br/>samples = 94<br/>value = 8.883>, fillcolor="#fae7da"] ;
579 -> 581 ;
582 [label=<squared_error = 9.901<br/>samples = 91<br/>value = 9.791>, fillcolor="#f9e3d3"] ;
578 -> 582 ;
583 [label=<start &le; 739209.5<br/>squared_error = 10.197<br/>samples = 127<br/>value = 8.575>, fillcolor="#fae9dc"] ;
577 -> 583 ;
584 [label=<squared_error = 9.033<br/>samples = 55<br/>value = 7.945>, fillcolor="#fbece1"] ;
583 -> 584 ;
585 [label=<squared_error = 10.552<br/>samples = 72<br/>value = 9.056>, fillcolor="#fae7d9"] ;
583 -> 585 ;
586 [label=<team &le; 9.5<br/>squared_error = 10.408<br/>samples = 542<br/>value = 7.592>, fillcolor="#fbeee4"] ;
576 -> 586 ;
587 [label=<technologies_web &le; 0.5<br/>squared_error = 10.516<br/>samples = 312<br/>value = 7.99>, fillcolor="#fbece1"] ;
586 -> 587 ;
588 [label=<technologies_java &le; 0.5<br/>squared_error = 10.599<br/>samples = 246<br/>value = 8.199>, fillcolor="#fbebdf"] ;
587 -> 588 ;
589 [label=<type_test &le; 0.5<br/>squared_error = 10.259<br/>samples = 182<br/>value = 8.451>, fillcolor="#fbeadd"] ;
588 -> 589 ;
590 [label=<type_feature &le; 0.5<br/>squared_error = 10.177<br/>samples = 107<br/>value = 8.14>, fillcolor="#fbebe0"] ;
589 -> 590 ;
591 [label=<squared_error = 9.807<br/>samples = 55<br/>value = 8.218>, fillcolor="#fbebdf"] ;
590 -> 591 ;
592 [label=<squared_error = 10.554<br/>samples = 52<br/>value = 8.058>, fillcolor="#fbebe0"] ;
590 -> 592 ;
593 [label=<squared_error = 10.042<br/>samples = 75<br/>value = 8.893>, fillcolor="#fae7da"] ;
589 -> 593 ;
594 [label=<squared_error = 10.875<br/>samples = 64<br/>value = 7.484>, fillcolor="#fceee5"] ;
588 -> 594 ;
595 [label=<squared_error = 9.44<br/>samples = 66<br/>value = 7.212>, fillcolor="#fcefe7"] ;
587 -> 595 ;
596 [label=<start &le; 739208.5<br/>squared_error = 9.754<br/>samples = 230<br/>value = 7.052>, fillcolor="#fcf0e8"] ;
586 -> 596 ;
597 [label=<squared_error = 9.68<br/>samples = 51<br/>value = 7.745>, fillcolor="#fbede3"] ;
596 -> 597 ;
598 [label=<type_feature &le; 0.5<br/>squared_error = 9.599<br/>samples = 179<br/>value = 6.855>, fillcolor="#fcf1e9"] ;
596 -> 598 ;
599 [label=<type_test &le; 0.5<br/>squared_error = 8.84<br/>samples = 115<br/>value = 6.939>, fillcolor="#fcf1e9"] ;
598 -> 599 ;
600 [label=<squared_error = 9.64<br/>samples = 50<br/>value = 7.14>, fillcolor="#fcf0e7"] ;
599 -> 600 ;
601 [label=<squared_error = 8.169<br/>samples = 65<br/>value = 6.785>, fillcolor="#fcf1ea"] ;
599 -> 601 ;
602 [label=<squared_error = 10.927<br/>samples = 64<br/>value = 6.703>, fillcolor="#fcf2ea"] ;
598 -> 602 ;
603 [label=<priority &le; 1.5<br/>squared_error = 9.607<br/>samples = 454<br/>value = 10.925>, fillcolor="#f8decb"] ;
575 -> 603 ;
604 [label=<team &le; 8.5<br/>squared_error = 12.048<br/>samples = 226<br/>value = 12.19>, fillcolor="#f7d8c1"] ;
603 -> 604 ;
605 [label=<squared_error = 12.628<br/>samples = 74<br/>value = 13.473>, fillcolor="#f6d2b8"] ;
604 -> 605 ;
606 [label=<deadline &le; 739219.5<br/>squared_error = 10.575<br/>samples = 152<br/>value = 11.566>, fillcolor="#f7dbc6"] ;
604 -> 606 ;
607 [label=<squared_error = 11.127<br/>samples = 63<br/>value = 11.984>, fillcolor="#f7d9c3"] ;
606 -> 607 ;
608 [label=<squared_error = 9.972<br/>samples = 89<br/>value = 11.27>, fillcolor="#f8dcc8"] ;
606 -> 608 ;
609 [label=<team &le; 8.5<br/>squared_error = 4.028<br/>samples = 228<br/>value = 9.671>, fillcolor="#f9e4d4"] ;
603 -> 609 ;
610 [label=<start &le; 739209.5<br/>squared_error = 3.647<br/>samples = 103<br/>value = 10.476>, fillcolor="#f9e0ce"] ;
609 -> 610 ;
611 [label=<squared_error = 3.666<br/>samples = 53<br/>value = 10.264>, fillcolor="#f9e1d0"] ;
610 -> 611 ;
612 [label=<squared_error = 3.53<br/>samples = 50<br/>value = 10.7>, fillcolor="#f8dfcc"] ;
610 -> 612 ;
613 [label=<team &le; 9.5<br/>squared_error = 3.368<br/>samples = 125<br/>value = 9.008>, fillcolor="#fae7d9"] ;
609 -> 613 ;
614 [label=<squared_error = 3.085<br/>samples = 68<br/>value = 9.368>, fillcolor="#fae5d6"] ;
613 -> 614 ;
615 [label=<squared_error = 3.367<br/>samples = 57<br/>value = 8.579>, fillcolor="#fae9dc"] ;
613 -> 615 ;
616 [label=<priority &le; 1.5<br/>squared_error = 8.13<br/>samples = 313<br/>value = 11.751>, fillcolor="#f7dac4"] ;
574 -> 616 ;
617 [label=<start &le; 739209.5<br/>squared_error = 10.127<br/>samples = 123<br/>value = 13.26>, fillcolor="#f6d3b9"] ;
616 -> 617 ;
618 [label=<squared_error = 10.762<br/>samples = 59<br/>value = 12.983>, fillcolor="#f6d4bb"] ;
617 -> 618 ;
619 [label=<squared_error = 9.406<br/>samples = 64<br/>value = 13.516>, fillcolor="#f6d1b7"] ;
617 -> 619 ;
620 [label=<team &le; 8.5<br/>squared_error = 4.407<br/>samples = 190<br/>value = 10.774>, fillcolor="#f8decc"] ;
616 -> 620 ;
621 [label=<squared_error = 2.585<br/>samples = 81<br/>value = 11.395>, fillcolor="#f8dbc7"] ;
620 -> 621 ;
622 [label=<start &le; 739209.5<br/>squared_error = 5.26<br/>samples = 109<br/>value = 10.312>, fillcolor="#f9e1cf"] ;
620 -> 622 ;
623 [label=<squared_error = 4.265<br/>samples = 58<br/>value = 10.362>, fillcolor="#f9e0cf"] ;
622 -> 623 ;
624 [label=<squared_error = 6.386<br/>samples = 51<br/>value = 10.255>, fillcolor="#f9e1d0"] ;
622 -> 624 ;
625 [label=<priority &le; 1.5<br/>squared_error = 8.194<br/>samples = 757<br/>value = 14.264>, fillcolor="#f5ceb2"] ;
465 -> 625 ;
626 [label=<team &le; 8.5<br/>squared_error = 11.408<br/>samples = 247<br/>value = 16.097>, fillcolor="#f3c5a4"] ;
625 -> 626 ;
627 [label=<squared_error = 10.415<br/>samples = 77<br/>value = 17.883>, fillcolor="#f1bc96"] ;
626 -> 627 ;
628 [label=<team &le; 9.5<br/>squared_error = 9.758<br/>samples = 170<br/>value = 15.288>, fillcolor="#f4c9aa"] ;
626 -> 628 ;
629 [label=<squared_error = 10.345<br/>samples = 65<br/>value = 16.2>, fillcolor="#f3c4a3"] ;
628 -> 629 ;
630 [label=<squared_error = 8.562<br/>samples = 105<br/>value = 14.724>, fillcolor="#f4ccae"] ;
628 -> 630 ;
631 [label=<team &le; 8.5<br/>squared_error = 4.223<br/>samples = 510<br/>value = 13.376>, fillcolor="#f6d2b8"] ;
625 -> 631 ;
632 [label=<team &le; 7.5<br/>squared_error = 3.138<br/>samples = 183<br/>value = 14.672>, fillcolor="#f4ccaf"] ;
631 -> 632 ;
633 [label=<squared_error = 2.607<br/>samples = 85<br/>value = 15.2>, fillcolor="#f4c9ab"] ;
632 -> 633 ;
634 [label=<squared_error = 3.148<br/>samples = 98<br/>value = 14.214>, fillcolor="#f5ceb2"] ;
632 -> 634 ;
635 [label=<team &le; 9.5<br/>squared_error = 3.365<br/>samples = 327<br/>value = 12.651>, fillcolor="#f6d5be"] ;
631 -> 635 ;
636 [label=<deadline &le; 739220.5<br/>squared_error = 3.011<br/>samples = 149<br/>value = 13.094>, fillcolor="#f6d3ba"] ;
635 -> 636 ;
637 [label=<squared_error = 2.862<br/>samples = 67<br/>value = 12.94>, fillcolor="#f6d4bc"] ;
636 -> 637 ;
638 [label=<squared_error = 3.098<br/>samples = 82<br/>value = 13.22>, fillcolor="#f6d3b9"] ;
636 -> 638 ;
639 [label=<start &le; 739209.5<br/>squared_error = 3.359<br/>samples = 178<br/>value = 12.281>, fillcolor="#f7d7c0"] ;
635 -> 639 ;
640 [label=<squared_error = 4.164<br/>samples = 93<br/>value = 12.516>, fillcolor="#f7d6bf"] ;
639 -> 640 ;
641 [label=<squared_error = 2.352<br/>samples = 85<br/>value = 12.024>, fillcolor="#f7d8c2"] ;
639 -> 641 ;
642 [label=<type_bug &le; 0.5<br/>squared_error = 29.292<br/>samples = 17442<br/>value = 17.832>, fillcolor="#f1bd97"] ;
0 -> 642 [labeldistance=2.5, labelangle=-45, headlabel="False"] ;
643 [label=<team &le; 4.5<br/>squared_error = 23.895<br/>samples = 10866<br/>value = 16.038>, fillcolor="#f3c5a4"] ;
642 -> 643 ;
644 [label=<deadline &le; 739230.5<br/>squared_error = 20.568<br/>samples = 7055<br/>value = 17.066>, fillcolor="#f2c09d"] ;
643 -> 644 ;
645 [label=<priority &le; 0.5<br/>squared_error = 18.143<br/>samples = 6015<br/>value = 16.574>, fillcolor="#f3c3a0"] ;
644 -> 645 ;
646 [label=<technologies_c++ &le; 0.5<br/>squared_error = 25.357<br/>samples = 2290<br/>value = 17.802>, fillcolor="#f1bd97"] ;
645 -> 646 ;
647 [label=<team &le; 2.5<br/>squared_error = 24.415<br/>samples = 1967<br/>value = 17.324>, fillcolor="#f2bf9b"] ;
646 -> 647 ;
648 [label=<type_manual testing &le; 0.5<br/>squared_error = 23.05<br/>samples = 1022<br/>value = 18.493>, fillcolor="#f1ba92"] ;
647 -> 648 ;
649 [label=<team &le; 1.5<br/>squared_error = 21.253<br/>samples = 940<br/>value = 18.101>, fillcolor="#f1bb95"] ;
648 -> 649 ;
650 [label=<technologies_python &le; 0.5<br/>squared_error = 20.763<br/>samples = 462<br/>value = 18.712>, fillcolor="#f0b890"] ;
649 -> 650 ;
651 [label=<start &le; 739209.5<br/>squared_error = 20.827<br/>samples = 383<br/>value = 18.906>, fillcolor="#f0b88f"] ;
650 -> 651 ;
652 [label=<deadline &le; 739224.5<br/>squared_error = 21.445<br/>samples = 203<br/>value = 18.586>, fillcolor="#f1b991"] ;
651 -> 652 ;
653 [label=<squared_error = 20.572<br/>samples = 51<br/>value = 19.235>, fillcolor="#f0b68c"] ;
652 -> 653 ;
654 [label=<start &le; 739208.5<br/>squared_error = 21.548<br/>samples = 152<br/>value = 18.368>, fillcolor="#f1ba93"] ;
652 -> 654 ;
655 [label=<squared_error = 22.642<br/>samples = 81<br/>value = 18.111>, fillcolor="#f1bb95"] ;
654 -> 655 ;
656 [label=<squared_error = 20.139<br/>samples = 71<br/>value = 18.662>, fillcolor="#f0b991"] ;
654 -> 656 ;
657 [label=<type_feature &le; 0.5<br/>squared_error = 19.884<br/>samples = 180<br/>value = 19.267>, fillcolor="#f0b68c"] ;
651 -> 657 ;
658 [label=<deadline &le; 739226.5<br/>squared_error = 18.379<br/>samples = 108<br/>value = 19.861>, fillcolor="#efb388"] ;
657 -> 658 ;
659 [label=<squared_error = 16.27<br/>samples = 50<br/>value = 20.64>, fillcolor="#efaf82"] ;
658 -> 659 ;
660 [label=<squared_error = 19.223<br/>samples = 58<br/>value = 19.19>, fillcolor="#f0b68d"] ;
658 -> 660 ;
661 [label=<squared_error = 20.818<br/>samples = 72<br/>value = 18.375>, fillcolor="#f1ba93"] ;
657 -> 661 ;
662 [label=<squared_error = 19.391<br/>samples = 79<br/>value = 17.772>, fillcolor="#f1bd97"] ;
650 -> 662 ;
663 [label=<technologies_sql &le; 0.5<br/>squared_error = 21.016<br/>samples = 478<br/>value = 17.51>, fillcolor="#f2be99"] ;
649 -> 663 ;
664 [label=<type_documentation &le; 0.5<br/>squared_error = 20.743<br/>samples = 391<br/>value = 17.783>, fillcolor="#f1bd97"] ;
663 -> 664 ;
665 [label=<deadline &le; 739228.5<br/>squared_error = 21.125<br/>samples = 315<br/>value = 17.54>, fillcolor="#f2be99"] ;
664 -> 665 ;
666 [label=<deadline &le; 739225.5<br/>squared_error = 21.659<br/>samples = 248<br/>value = 17.742>, fillcolor="#f1bd97"] ;
665 -> 666 ;
667 [label=<type_feature &le; 0.5<br/>squared_error = 19.638<br/>samples = 122<br/>value = 17.303>, fillcolor="#f2bf9b"] ;
666 -> 667 ;
668 [label=<squared_error = 17.607<br/>samples = 65<br/>value = 17.846>, fillcolor="#f1bd97"] ;
667 -> 668 ;
669 [label=<squared_error = 21.234<br/>samples = 57<br/>value = 16.684>, fillcolor="#f2c29f"] ;
667 -> 669 ;
670 [label=<type_test &le; 0.5<br/>squared_error = 23.25<br/>samples = 126<br/>value = 18.167>, fillcolor="#f1bb94"] ;
666 -> 670 ;
671 [label=<squared_error = 20.511<br/>samples = 66<br/>value = 19.061>, fillcolor="#f0b78e"] ;
670 -> 671 ;
672 [label=<squared_error = 24.416<br/>samples = 60<br/>value = 17.183>, fillcolor="#f2c09c"] ;
670 -> 672 ;
673 [label=<squared_error = 18.434<br/>samples = 67<br/>value = 16.791>, fillcolor="#f2c29f"] ;
665 -> 673 ;
674 [label=<squared_error = 17.903<br/>samples = 76<br/>value = 18.789>, fillcolor="#f0b890"] ;
664 -> 674 ;
675 [label=<squared_error = 20.412<br/>samples = 87<br/>value = 16.287>, fillcolor="#f3c4a2"] ;
663 -> 675 ;
676 [label=<squared_error = 21.695<br/>samples = 82<br/>value = 22.988>, fillcolor="#eca470"] ;
648 -> 676 ;
677 [label=<type_manual testing &le; 0.5<br/>squared_error = 22.816<br/>samples = 945<br/>value = 16.06>, fillcolor="#f3c5a4"] ;
647 -> 677 ;
678 [label=<deadline &le; 739229.5<br/>squared_error = 21.998<br/>samples = 866<br/>value = 15.741>, fillcolor="#f3c7a6"] ;
677 -> 678 ;
679 [label=<type_documentation &le; 0.5<br/>squared_error = 21.843<br/>samples = 755<br/>value = 15.939>, fillcolor="#f3c6a5"] ;
678 -> 679 ;
680 [label=<team &le; 3.5<br/>squared_error = 21.855<br/>samples = 614<br/>value = 15.723>, fillcolor="#f3c7a7"] ;
679 -> 680 ;
681 [label=<technologies_c# &le; 0.5<br/>squared_error = 21.336<br/>samples = 295<br/>value = 16.163>, fillcolor="#f3c5a3"] ;
680 -> 681 ;
682 [label=<start &le; 739208.5<br/>squared_error = 21.591<br/>samples = 245<br/>value = 16.351>, fillcolor="#f3c4a2"] ;
681 -> 682 ;
683 [label=<squared_error = 19.79<br/>samples = 52<br/>value = 17.308>, fillcolor="#f2bf9b"] ;
682 -> 683 ;
684 [label=<deadline &le; 739225.5<br/>squared_error = 21.763<br/>samples = 193<br/>value = 16.093>, fillcolor="#f3c5a4"] ;
682 -> 684 ;
685 [label=<squared_error = 19.493<br/>samples = 72<br/>value = 16.583>, fillcolor="#f3c3a0"] ;
684 -> 685 ;
686 [label=<type_feature &le; 0.5<br/>squared_error = 22.886<br/>samples = 121<br/>value = 15.802>, fillcolor="#f3c6a6"] ;
684 -> 686 ;
687 [label=<squared_error = 22.482<br/>samples = 60<br/>value = 15.133>, fillcolor="#f4caab"] ;
686 -> 687 ;
688 [label=<squared_error = 22.412<br/>samples = 61<br/>value = 16.459>, fillcolor="#f3c3a1"] ;
686 -> 688 ;
689 [label=<squared_error = 19.062<br/>samples = 50<br/>value = 15.24>, fillcolor="#f4c9aa"] ;
681 -> 689 ;
690 [label=<deadline &le; 739226.5<br/>squared_error = 21.991<br/>samples = 319<br/>value = 15.317>, fillcolor="#f4c9aa"] ;
680 -> 690 ;
691 [label=<start &le; 739210.5<br/>squared_error = 23.026<br/>samples = 179<br/>value = 15.045>, fillcolor="#f4caac"] ;
690 -> 691 ;
692 [label=<type_test &le; 0.5<br/>squared_error = 23.959<br/>samples = 126<br/>value = 14.73>, fillcolor="#f4ccae"] ;
691 -> 692 ;
693 [label=<squared_error = 24.346<br/>samples = 71<br/>value = 15.141>, fillcolor="#f4caab"] ;
692 -> 693 ;
694 [label=<squared_error = 22.96<br/>samples = 55<br/>value = 14.2>, fillcolor="#f5ceb2"] ;
692 -> 694 ;
695 [label=<squared_error = 20.014<br/>samples = 53<br/>value = 15.792>, fillcolor="#f3c6a6"] ;
691 -> 695 ;
696 [label=<type_test &le; 0.5<br/>squared_error = 20.452<br/>samples = 140<br/>value = 15.664>, fillcolor="#f3c7a7"] ;
690 -> 696 ;
697 [label=<squared_error = 18.094<br/>samples = 63<br/>value = 15.254>, fillcolor="#f4c9aa"] ;
696 -> 697 ;
698 [label=<squared_error = 22.13<br/>samples = 77<br/>value = 16.0>, fillcolor="#f3c5a5"] ;
696 -> 698 ;
699 [label=<deadline &le; 739225.5<br/>squared_error = 20.702<br/>samples = 141<br/>value = 16.879>, fillcolor="#f2c19e"] ;
679 -> 699 ;
700 [label=<squared_error = 22.98<br/>samples = 63<br/>value = 16.063>, fillcolor="#f3c5a4"] ;
699 -> 700 ;
701 [label=<squared_error = 17.89<br/>samples = 78<br/>value = 17.538>, fillcolor="#f2be99"] ;
699 -> 701 ;
702 [label=<team &le; 3.5<br/>squared_error = 20.978<br/>samples = 111<br/>value = 14.396>, fillcolor="#f5cdb1"] ;
678 -> 702 ;
703 [label=<squared_error = 17.022<br/>samples = 57<br/>value = 14.825>, fillcolor="#f4cbad"] ;
702 -> 703 ;
704 [label=<squared_error = 24.756<br/>samples = 54<br/>value = 13.944>, fillcolor="#f5cfb4"] ;
702 -> 704 ;
705 [label=<squared_error = 18.449<br/>samples = 79<br/>value = 19.557>, fillcolor="#f0b48a"] ;
677 -> 705 ;
706 [label=<deadline &le; 739226.5<br/>squared_error = 21.253<br/>samples = 323<br/>value = 20.709>, fillcolor="#eeaf81"] ;
646 -> 706 ;
707 [label=<start &le; 739209.5<br/>squared_error = 20.73<br/>samples = 149<br/>value = 21.369>, fillcolor="#eeac7c"] ;
706 -> 707 ;
708 [label=<squared_error = 20.408<br/>samples = 70<br/>value = 21.857>, fillcolor="#eda979"] ;
707 -> 708 ;
709 [label=<squared_error = 20.616<br/>samples = 79<br/>value = 20.937>, fillcolor="#eeae7f"] ;
707 -> 709 ;
710 [label=<deadline &le; 739228.5<br/>squared_error = 21.008<br/>samples = 174<br/>value = 20.144>, fillcolor="#efb285"] ;
706 -> 710 ;
711 [label=<squared_error = 18.357<br/>samples = 88<br/>value = 19.273>, fillcolor="#f0b68c"] ;
710 -> 711 ;
712 [label=<squared_error = 22.15<br/>samples = 86<br/>value = 21.035>, fillcolor="#eead7f"] ;
710 -> 712 ;
713 [label=<type_manual testing &le; 0.5<br/>squared_error = 12.212<br/>samples = 3725<br/>value = 15.819>, fillcolor="#f3c6a6"] ;
645 -> 713 ;
714 [label=<technologies_c++ &le; 0.5<br/>squared_error = 11.447<br/>samples = 3131<br/>value = 15.355>, fillcolor="#f4c9a9"] ;
713 -> 714 ;
715 [label=<team &le; 1.5<br/>squared_error = 9.943<br/>samples = 2214<br/>value = 14.482>, fillcolor="#f5cdb0"] ;
714 -> 715 ;
716 [label=<priority &le; 1.5<br/>squared_error = 9.218<br/>samples = 855<br/>value = 15.306>, fillcolor="#f4c9aa"] ;
715 -> 716 ;
717 [label=<type_documentation &le; 0.5<br/>squared_error = 10.409<br/>samples = 612<br/>value = 15.925>, fillcolor="#f3c6a5"] ;
716 -> 717 ;
718 [label=<technologies_nosql &le; 0.5<br/>squared_error = 10.151<br/>samples = 487<br/>value = 15.766>, fillcolor="#f3c7a6"] ;
717 -> 718 ;
719 [label=<deadline &le; 739225.5<br/>squared_error = 9.827<br/>samples = 421<br/>value = 15.865>, fillcolor="#f3c6a6"] ;
718 -> 719 ;
720 [label=<start &le; 739208.5<br/>squared_error = 9.504<br/>samples = 199<br/>value = 15.648>, fillcolor="#f3c7a7"] ;
719 -> 720 ;
721 [label=<squared_error = 9.356<br/>samples = 54<br/>value = 16.426>, fillcolor="#f3c3a1"] ;
720 -> 721 ;
722 [label=<type_test &le; 0.5<br/>squared_error = 9.251<br/>samples = 145<br/>value = 15.359>, fillcolor="#f4c8a9"] ;
720 -> 722 ;
723 [label=<squared_error = 7.898<br/>samples = 83<br/>value = 15.072>, fillcolor="#f4caac"] ;
722 -> 723 ;
724 [label=<squared_error = 10.804<br/>samples = 62<br/>value = 15.742>, fillcolor="#f3c7a6"] ;
722 -> 724 ;
725 [label=<deadline &le; 739227.5<br/>squared_error = 10.037<br/>samples = 222<br/>value = 16.059>, fillcolor="#f3c5a4"] ;
719 -> 725 ;
726 [label=<start &le; 739209.5<br/>squared_error = 10.097<br/>samples = 121<br/>value = 16.438>, fillcolor="#f3c3a1"] ;
725 -> 726 ;
727 [label=<squared_error = 10.146<br/>samples = 67<br/>value = 15.94>, fillcolor="#f3c6a5"] ;
726 -> 727 ;
728 [label=<squared_error = 9.349<br/>samples = 54<br/>value = 17.056>, fillcolor="#f2c09d"] ;
726 -> 728 ;
729 [label=<type_test &le; 0.5<br/>squared_error = 9.586<br/>samples = 101<br/>value = 15.604>, fillcolor="#f4c7a8"] ;
725 -> 729 ;
730 [label=<squared_error = 9.546<br/>samples = 50<br/>value = 14.88>, fillcolor="#f4cbad"] ;
729 -> 730 ;
731 [label=<squared_error = 8.607<br/>samples = 51<br/>value = 16.314>, fillcolor="#f3c4a2"] ;
729 -> 731 ;
732 [label=<squared_error = 11.754<br/>samples = 66<br/>value = 15.136>, fillcolor="#f4caab"] ;
718 -> 732 ;
733 [label=<start &le; 739209.5<br/>squared_error = 10.936<br/>samples = 125<br/>value = 16.544>, fillcolor="#f3c3a0"] ;
717 -> 733 ;
734 [label=<squared_error = 10.945<br/>samples = 61<br/>value = 16.197>, fillcolor="#f3c4a3"] ;
733 -> 734 ;
735 [label=<squared_error = 10.703<br/>samples = 64<br/>value = 16.875>, fillcolor="#f2c19e"] ;
733 -> 735 ;
736 [label=<type_documentation &le; 0.5<br/>squared_error = 2.83<br/>samples = 243<br/>value = 13.749>, fillcolor="#f5d0b5"] ;
716 -> 736 ;
737 [label=<deadline &le; 739223.5<br/>squared_error = 2.659<br/>samples = 182<br/>value = 13.593>, fillcolor="#f5d1b7"] ;
736 -> 737 ;
738 [label=<type_feature &le; 0.5<br/>squared_error = 2.551<br/>samples = 126<br/>value = 13.476>, fillcolor="#f6d1b7"] ;
737 -> 738 ;
739 [label=<squared_error = 2.599<br/>samples = 68<br/>value = 13.559>, fillcolor="#f6d1b7"] ;
738 -> 739 ;
740 [label=<squared_error = 2.477<br/>samples = 58<br/>value = 13.379>, fillcolor="#f6d2b8"] ;
738 -> 740 ;
741 [label=<squared_error = 2.801<br/>samples = 56<br/>value = 13.857>, fillcolor="#f5d0b5"] ;
737 -> 741 ;
742 [label=<squared_error = 3.053<br/>samples = 61<br/>value = 14.213>, fillcolor="#f5ceb2"] ;
736 -> 742 ;
743 [label=<team &le; 3.5<br/>squared_error = 9.704<br/>samples = 1359<br/>value = 13.964>, fillcolor="#f5cfb4"] ;
715 -> 743 ;
744 [label=<priority &le; 1.5<br/>squared_error = 9.203<br/>samples = 1024<br/>value = 14.227>, fillcolor="#f5ceb2"] ;
743 -> 744 ;
745 [label=<team &le; 2.5<br/>squared_error = 9.715<br/>samples = 897<br/>value = 14.431>, fillcolor="#f5cdb0"] ;
744 -> 745 ;
746 [label=<technologies_java &le; 0.5<br/>squared_error = 9.771<br/>samples = 478<br/>value = 14.778>, fillcolor="#f4cbae"] ;
745 -> 746 ;
747 [label=<type_test &le; 0.5<br/>squared_error = 9.836<br/>samples = 388<br/>value = 14.956>, fillcolor="#f4caac"] ;
746 -> 747 ;
748 [label=<start &le; 739210.5<br/>squared_error = 8.902<br/>samples = 242<br/>value = 14.707>, fillcolor="#f4ccae"] ;
747 -> 748 ;
749 [label=<deadline &le; 739225.5<br/>squared_error = 9.404<br/>samples = 180<br/>value = 14.461>, fillcolor="#f5cdb0"] ;
748 -> 749 ;
750 [label=<squared_error = 9.57<br/>samples = 92<br/>value = 14.13>, fillcolor="#f5ceb3"] ;
749 -> 750 ;
751 [label=<squared_error = 8.997<br/>samples = 88<br/>value = 14.807>, fillcolor="#f4cbad"] ;
749 -> 751 ;
752 [label=<squared_error = 6.76<br/>samples = 62<br/>value = 15.419>, fillcolor="#f4c8a9"] ;
748 -> 752 ;
753 [label=<deadline &le; 739224.5<br/>squared_error = 11.11<br/>samples = 146<br/>value = 15.37>, fillcolor="#f4c8a9"] ;
747 -> 753 ;
754 [label=<squared_error = 11.751<br/>samples = 51<br/>value = 14.882>, fillcolor="#f4cbad"] ;
753 -> 754 ;
755 [label=<squared_error = 10.57<br/>samples = 95<br/>value = 15.632>, fillcolor="#f3c7a7"] ;
753 -> 755 ;
756 [label=<squared_error = 8.767<br/>samples = 90<br/>value = 14.011>, fillcolor="#f5cfb3"] ;
746 -> 756 ;
757 [label=<deadline &le; 739225.5<br/>squared_error = 9.357<br/>samples = 419<br/>value = 14.036>, fillcolor="#f5cfb3"] ;
745 -> 757 ;
758 [label=<type_documentation &le; 0.5<br/>squared_error = 9.375<br/>samples = 267<br/>value = 13.689>, fillcolor="#f5d0b6"] ;
757 -> 758 ;
759 [label=<start &le; 739210.5<br/>squared_error = 9.457<br/>samples = 217<br/>value = 13.502>, fillcolor="#f6d1b7"] ;
758 -> 759 ;
760 [label=<deadline &le; 739224.5<br/>squared_error = 8.736<br/>samples = 160<br/>value = 13.456>, fillcolor="#f6d2b8"] ;
759 -> 760 ;
761 [label=<squared_error = 9.095<br/>samples = 108<br/>value = 13.583>, fillcolor="#f6d1b7"] ;
760 -> 761 ;
762 [label=<squared_error = 7.886<br/>samples = 52<br/>value = 13.192>, fillcolor="#f6d3ba"] ;
760 -> 762 ;
763 [label=<squared_error = 11.461<br/>samples = 57<br/>value = 13.632>, fillcolor="#f5d1b6"] ;
759 -> 763 ;
764 [label=<squared_error = 8.21<br/>samples = 50<br/>value = 14.5>, fillcolor="#f5cdb0"] ;
758 -> 764 ;
765 [label=<deadline &le; 739226.5<br/>squared_error = 8.742<br/>samples = 152<br/>value = 14.645>, fillcolor="#f4ccaf"] ;
757 -> 765 ;
766 [label=<squared_error = 7.489<br/>samples = 96<br/>value = 14.396>, fillcolor="#f5cdb1"] ;
765 -> 766 ;
767 [label=<squared_error = 10.602<br/>samples = 56<br/>value = 15.071>, fillcolor="#f4caac"] ;
765 -> 767 ;
768 [label=<type_documentation &le; 0.5<br/>squared_error = 3.195<br/>samples = 127<br/>value = 12.78>, fillcolor="#f6d5bd"] ;
744 -> 768 ;
769 [label=<squared_error = 2.718<br/>samples = 67<br/>value = 12.597>, fillcolor="#f6d6be"] ;
768 -> 769 ;
770 [label=<squared_error = 3.65<br/>samples = 60<br/>value = 12.983>, fillcolor="#f6d4bb"] ;
768 -> 770 ;
771 [label=<type_documentation &le; 0.5<br/>squared_error = 10.38<br/>samples = 335<br/>value = 13.161>, fillcolor="#f6d3ba"] ;
743 -> 771 ;
772 [label=<start &le; 739209.5<br/>squared_error = 10.144<br/>samples = 263<br/>value = 12.992>, fillcolor="#f6d4bb"] ;
771 -> 772 ;
773 [label=<start &le; 739208.5<br/>squared_error = 9.716<br/>samples = 129<br/>value = 13.349>, fillcolor="#f6d2b8"] ;
772 -> 773 ;
774 [label=<squared_error = 8.569<br/>samples = 73<br/>value = 12.753>, fillcolor="#f6d5bd"] ;
773 -> 774 ;
775 [label=<squared_error = 10.145<br/>samples = 56<br/>value = 14.125>, fillcolor="#f5ceb3"] ;
773 -> 775 ;
776 [label=<type_feature &le; 0.5<br/>squared_error = 10.317<br/>samples = 134<br/>value = 12.649>, fillcolor="#f6d5be"] ;
772 -> 776 ;
777 [label=<squared_error = 9.62<br/>samples = 74<br/>value = 12.122>, fillcolor="#f7d8c2"] ;
776 -> 777 ;
778 [label=<squared_error = 10.41<br/>samples = 60<br/>value = 13.3>, fillcolor="#f6d2b9"] ;
776 -> 778 ;
779 [label=<squared_error = 10.756<br/>samples = 72<br/>value = 13.778>, fillcolor="#f5d0b5"] ;
771 -> 779 ;
780 [label=<priority &le; 1.5<br/>squared_error = 8.802<br/>samples = 917<br/>value = 17.461>, fillcolor="#f2be9a"] ;
714 -> 780 ;
781 [label=<team &le; 2.5<br/>squared_error = 10.912<br/>samples = 444<br/>value = 18.615>, fillcolor="#f1b991"] ;
780 -> 781 ;
782 [label=<team &le; 1.5<br/>squared_error = 10.689<br/>samples = 224<br/>value = 19.371>, fillcolor="#f0b58b"] ;
781 -> 782 ;
783 [label=<deadline &le; 739226.5<br/>squared_error = 10.866<br/>samples = 105<br/>value = 19.971>, fillcolor="#efb287"] ;
782 -> 783 ;
784 [label=<squared_error = 10.038<br/>samples = 51<br/>value = 19.627>, fillcolor="#f0b489"] ;
783 -> 784 ;
785 [label=<squared_error = 11.431<br/>samples = 54<br/>value = 20.296>, fillcolor="#efb184"] ;
783 -> 785 ;
786 [label=<start &le; 739209.5<br/>squared_error = 9.932<br/>samples = 119<br/>value = 18.84>, fillcolor="#f0b88f"] ;
782 -> 786 ;
787 [label=<squared_error = 8.711<br/>samples = 52<br/>value = 19.019>, fillcolor="#f0b78e"] ;
786 -> 787 ;
788 [label=<squared_error = 10.836<br/>samples = 67<br/>value = 18.701>, fillcolor="#f0b990"] ;
786 -> 788 ;
789 [label=<deadline &le; 739227.5<br/>squared_error = 9.967<br/>samples = 220<br/>value = 17.845>, fillcolor="#f1bd97"] ;
781 -> 789 ;
790 [label=<team &le; 3.5<br/>squared_error = 9.838<br/>samples = 141<br/>value = 17.525>, fillcolor="#f2be99"] ;
789 -> 790 ;
791 [label=<squared_error = 9.421<br/>samples = 75<br/>value = 17.787>, fillcolor="#f1bd97"] ;
790 -> 791 ;
792 [label=<squared_error = 10.145<br/>samples = 66<br/>value = 17.227>, fillcolor="#f2c09b"] ;
790 -> 792 ;
793 [label=<squared_error = 9.686<br/>samples = 79<br/>value = 18.418>, fillcolor="#f1ba92"] ;
789 -> 793 ;
794 [label=<team &le; 2.5<br/>squared_error = 4.4<br/>samples = 473<br/>value = 16.378>, fillcolor="#f3c4a2"] ;
780 -> 794 ;
795 [label=<team &le; 1.5<br/>squared_error = 3.51<br/>samples = 277<br/>value = 17.116>, fillcolor="#f2c09c"] ;
794 -> 795 ;
796 [label=<type_test &le; 0.5<br/>squared_error = 3.015<br/>samples = 152<br/>value = 17.605>, fillcolor="#f2be98"] ;
795 -> 796 ;
797 [label=<squared_error = 2.771<br/>samples = 91<br/>value = 17.725>, fillcolor="#f1bd98"] ;
796 -> 797 ;
798 [label=<squared_error = 3.327<br/>samples = 61<br/>value = 17.426>, fillcolor="#f2bf9a"] ;
796 -> 798 ;
799 [label=<start &le; 739209.5<br/>squared_error = 3.466<br/>samples = 125<br/>value = 16.52>, fillcolor="#f3c3a1"] ;
795 -> 799 ;
800 [label=<squared_error = 3.036<br/>samples = 57<br/>value = 16.737>, fillcolor="#f2c29f"] ;
799 -> 800 ;
801 [label=<squared_error = 3.753<br/>samples = 68<br/>value = 16.338>, fillcolor="#f3c4a2"] ;
799 -> 801 ;
802 [label=<team &le; 3.5<br/>squared_error = 3.805<br/>samples = 196<br/>value = 15.337>, fillcolor="#f4c9aa"] ;
794 -> 802 ;
803 [label=<start &le; 739209.5<br/>squared_error = 3.509<br/>samples = 122<br/>value = 15.844>, fillcolor="#f3c6a6"] ;
802 -> 803 ;
804 [label=<squared_error = 3.569<br/>samples = 51<br/>value = 15.863>, fillcolor="#f3c6a6"] ;
803 -> 804 ;
805 [label=<squared_error = 3.464<br/>samples = 71<br/>value = 15.831>, fillcolor="#f3c6a6"] ;
803 -> 805 ;
806 [label=<squared_error = 3.169<br/>samples = 74<br/>value = 14.5>, fillcolor="#f5cdb0"] ;
802 -> 806 ;
807 [label=<priority &le; 1.5<br/>squared_error = 9.121<br/>samples = 594<br/>value = 18.266>, fillcolor="#f1bb94"] ;
713 -> 807 ;
808 [label=<team &le; 3.5<br/>squared_error = 12.287<br/>samples = 257<br/>value = 19.401>, fillcolor="#f0b58b"] ;
807 -> 808 ;
809 [label=<team &le; 1.5<br/>squared_error = 10.716<br/>samples = 180<br/>value = 20.028>, fillcolor="#efb286"] ;
808 -> 809 ;
810 [label=<squared_error = 10.914<br/>samples = 60<br/>value = 21.05>, fillcolor="#eead7f"] ;
809 -> 810 ;
811 [label=<start &le; 739209.5<br/>squared_error = 9.833<br/>samples = 120<br/>value = 19.517>, fillcolor="#f0b58a"] ;
809 -> 811 ;
812 [label=<squared_error = 9.645<br/>samples = 61<br/>value = 19.836>, fillcolor="#efb388"] ;
811 -> 812 ;
813 [label=<squared_error = 9.813<br/>samples = 59<br/>value = 19.186>, fillcolor="#f0b68d"] ;
811 -> 813 ;
814 [label=<squared_error = 12.892<br/>samples = 77<br/>value = 17.935>, fillcolor="#f1bc96"] ;
808 -> 814 ;
815 [label=<team &le; 1.5<br/>squared_error = 4.976<br/>samples = 337<br/>value = 17.401>, fillcolor="#f2bf9a"] ;
807 -> 815 ;
816 [label=<squared_error = 3.882<br/>samples = 91<br/>value = 18.626>, fillcolor="#f1b991"] ;
815 -> 816 ;
817 [label=<team &le; 2.5<br/>squared_error = 4.619<br/>samples = 246<br/>value = 16.947>, fillcolor="#f2c19d"] ;
815 -> 817 ;
818 [label=<squared_error = 4.17<br/>samples = 100<br/>value = 17.51>, fillcolor="#f2be99"] ;
817 -> 818 ;
819 [label=<deadline &le; 739224.5<br/>squared_error = 4.561<br/>samples = 146<br/>value = 16.562>, fillcolor="#f3c3a0"] ;
817 -> 819 ;
820 [label=<squared_error = 2.931<br/>samples = 62<br/>value = 16.065>, fillcolor="#f3c5a4"] ;
819 -> 820 ;
821 [label=<squared_error = 5.447<br/>samples = 84<br/>value = 16.929>, fillcolor="#f2c19e"] ;
819 -> 821 ;
822 [label=<technologies_c++ &le; 0.5<br/>squared_error = 25.074<br/>samples = 1040<br/>value = 19.914>, fillcolor="#efb387"] ;
644 -> 822 ;
823 [label=<type_manual testing &le; 0.5<br/>squared_error = 23.27<br/>samples = 665<br/>value = 18.91>, fillcolor="#f0b88f"] ;
822 -> 823 ;
824 [label=<team &le; 1.5<br/>squared_error = 21.849<br/>samples = 448<br/>value = 17.812>, fillcolor="#f1bd97"] ;
823 -> 824 ;
825 [label=<deadline &le; 739231.5<br/>squared_error = 20.743<br/>samples = 182<br/>value = 18.654>, fillcolor="#f1b991"] ;
824 -> 825 ;
826 [label=<squared_error = 15.444<br/>samples = 56<br/>value = 17.196>, fillcolor="#f2c09c"] ;
825 -> 826 ;
